姜光焰 -0.004116 -0.002271 0.008977 -0.012050 -0.000417 0.003115 0.028750 0.008567 0.015482 0.012407 -0.011773 -0.021927 -0.002280 -0.007906 -0.006771 0.010967 0.012093 0.000284 0.003662 0.000360 -0.031183 0.005005 0.010077 0.007062 0.013568 -0.001790 0.007039 -0.002844 0.031478 -0.021279 -0.002517 0.006273 -0.006650 -0.009269 -0.006716 0.008973 -0.018117 0.016196 -0.009336 0.011859 -0.009501 -0.008264 -0.014063 0.008271 0.009077 -0.011391 -0.006088 0.009475 -0.004782 -0.030164 -0.003047 0.013486 -0.019527 -0.007526 0.005743 0.013377 0.000595 0.013518 0.023027 -0.013573 0.005572 0.007845 -0.014731 0.009247 -0.009498 0.016168 -0.014762 0.010614 -0.001542 0.023320 -0.004056 -0.027336 -0.004024 0.003091 -0.002770 -0.003520 -0.008598 0.000243 0.017328 -0.021767 -0.000693 -0.014271 -0.010908 0.003578 -0.014940 -0.033501 -0.008629 0.027940 0.001938 0.006438 0.025101 -0.028530 -0.009993 -0.002392 0.009633 -0.016923 -0.005290 0.011613 -0.014360 -0.000866 
甘越 -0.011537 0.010427 0.015475 -0.002334 -0.003414 -0.000814 0.012123 0.018911 0.007198 0.012791 0.005900 -0.004535 -0.013909 -0.003950 -0.002737 0.000728 0.008428 -0.000474 -0.011492 -0.000320 -0.016722 -0.005839 -0.002501 0.004490 -0.002278 -0.005684 -0.016234 -0.008488 0.006097 -0.004509 -0.009573 0.005503 0.000380 0.002130 0.001293 0.011487 -0.000725 -0.000272 -0.013038 -0.009015 0.004775 -0.004734 -0.000068 -0.007825 -0.000608 0.004729 -0.001404 0.006523 -0.003477 -0.000762 -0.002881 0.002754 0.000869 0.003646 -0.006787 0.008337 0.009212 -0.005255 0.009112 0.006062 0.000185 -0.003164 -0.005553 0.000480 -0.000597 -0.002882 -0.009356 0.002012 -0.008038 -0.013586 -0.011147 -0.004973 0.008489 0.005196 -0.000726 -0.007619 -0.009241 -0.005627 0.006331 -0.003343 0.012339 0.001623 0.004648 0.001704 0.001868 -0.005427 -0.010439 0.007560 0.006486 -0.000148 -0.014889 -0.012928 -0.015244 -0.015437 -0.011910 -0.006392 -0.007355 -0.001831 0.009312 0.010033 
罗本传 0.013097 0.025634 -0.007000 -0.006981 0.024242 0.004208 0.031696 -0.009708 0.010086 -0.005268 -0.011354 0.011885 -0.031586 -0.015703 -0.008050 0.045468 -0.017682 -0.048384 0.012101 -0.040701 0.006968 0.025363 -0.005208 -0.025274 0.001519 -0.008525 -0.025522 0.015141 0.026688 -0.083712 0.017162 0.026771 -0.018070 0.007343 0.000879 0.026556 -0.037530 0.011064 0.008280 0.002011 -0.012132 -0.069845 0.010748 -0.014037 0.020903 0.025691 -0.027315 0.028537 0.002093 -0.028999 -0.026037 0.012510 -0.067547 -0.003457 -0.001829 0.027641 0.009126 0.019130 0.035617 -0.052440 0.007899 -0.015994 -0.048505 0.006631 -0.022142 -0.007894 -0.005585 0.021828 0.002017 0.021384 -0.018289 -0.039884 0.028627 -0.040792 0.014720 0.006243 -0.007374 -0.017914 -0.006405 -0.001465 0.002405 -0.041535 -0.049622 0.015507 0.016453 -0.030217 -0.032841 0.002400 0.031623 -0.014060 -0.028106 -0.017328 0.010928 -0.022189 0.020486 0.019790 0.003666 -0.012967 -0.031943 -0.011169 
户汶川 -0.005721 -0.011527 -0.011896 0.005831 -0.002764 0.010893 0.011318 0.001745 -0.004812 0.014429 -0.012886 0.007434 -0.001952 -0.006506 -0.000172 -0.000739 0.008029 -0.003614 0.002477 0.018416 -0.012321 0.029156 -0.012500 0.022643 -0.013138 -0.017538 -0.003483 -0.011850 0.016752 0.006457 0.006324 -0.020515 0.010627 0.003429 0.000135 0.003538 -0.009517 -0.000093 0.007892 0.017031 -0.007202 -0.004351 -0.008320 -0.022753 -0.016892 0.001281 -0.009536 0.007749 -0.016350 -0.005516 0.005058 0.002196 0.003572 -0.007701 -0.010756 0.005917 0.003307 0.010021 0.002539 -0.018881 -0.003415 -0.006651 -0.003364 -0.011116 0.001774 0.010436 -0.002232 0.003210 -0.003424 0.002973 0.001027 -0.007190 -0.001197 0.000407 0.009785 -0.004082 0.011608 0.004854 0.012245 0.002108 0.003658 -0.012731 0.017680 0.008793 0.010991 -0.017270 -0.004049 0.014138 -0.010446 0.008955 0.029939 0.016609 0.001017 0.011373 -0.015285 0.006101 -0.006245 0.012670 -0.007030 -0.025941 
乐安寺乡 -0.013064 -0.020141 -0.002195 -0.027319 -0.007381 -0.013283 0.001109 -0.002990 0.012035 0.005853 -0.009419 -0.012299 0.003542 -0.002374 0.012915 0.016184 0.011526 -0.014533 0.004141 0.015985 -0.027277 0.010584 0.005003 0.022805 0.003757 -0.007396 -0.008915 -0.011948 0.003205 -0.009257 -0.014715 -0.009412 0.000591 -0.005796 -0.001857 -0.004096 -0.024431 -0.003705 -0.004588 0.016060 0.003132 -0.014606 -0.002087 -0.007761 0.002078 -0.011325 -0.004944 -0.006262 -0.016231 0.001911 0.006380 0.017898 -0.016132 0.001514 0.006167 0.002047 0.004650 0.004225 -0.013965 -0.023030 0.008120 0.001802 -0.002558 0.008433 0.000555 0.009184 0.008895 -0.001855 0.012505 -0.011522 -0.002197 -0.008992 -0.014536 -0.019541 0.013085 0.011555 -0.006953 0.030749 0.003519 -0.006658 -0.019748 -0.003556 -0.007007 0.010648 0.002706 -0.018496 0.024274 0.023634 0.012449 0.008857 0.010534 -0.005803 -0.008496 0.011416 -0.019596 0.002540 -0.005115 0.013728 -0.018247 -0.011248 
李坤进 -0.009906 -0.017164 0.012823 -0.015729 -0.008061 -0.000394 0.000811 -0.004349 0.022601 -0.005451 0.004359 -0.013660 0.005395 -0.000003 -0.000033 0.027056 0.017210 -0.023455 -0.008330 0.022904 -0.027352 0.030367 -0.000418 0.037448 -0.009561 -0.021679 -0.019257 -0.012448 0.009649 -0.026015 -0.020794 -0.018433 -0.004134 -0.016824 0.012615 -0.016542 -0.017780 -0.010206 -0.011421 0.009898 -0.013373 -0.013603 0.003280 0.002045 0.003972 -0.009139 -0.018751 -0.003682 -0.019268 -0.002715 0.009413 0.037703 -0.017248 0.011593 0.005565 0.016321 0.008707 -0.005725 -0.013062 -0.033632 0.028316 0.015414 0.001822 0.014234 -0.001648 0.015431 0.002263 0.005379 -0.001207 0.001510 0.009229 0.001884 -0.023004 -0.032832 0.012417 0.002182 -0.008740 0.049843 0.002347 -0.020474 -0.011234 -0.008036 -0.014928 0.010054 -0.028401 -0.026443 0.031509 0.035422 -0.001213 -0.005289 0.030786 -0.007439 -0.005166 0.009215 -0.027578 0.011741 -0.006048 0.021560 -0.019696 -0.025145 
nimblestorage 0.010105 -0.005949 -0.004796 0.017705 -0.007806 0.022957 0.000997 0.006780 0.009942 0.008795 0.010686 0.012103 0.007169 -0.017729 -0.011744 -0.012772 -0.004443 -0.009954 -0.017751 0.027364 0.012413 -0.016674 -0.017320 -0.010844 -0.002374 0.000163 0.022139 -0.006031 0.018213 -0.018680 0.007645 0.026292 0.030300 0.021695 0.005631 0.003339 -0.019634 0.014297 -0.015213 -0.006250 -0.031869 0.005075 0.013775 -0.017628 0.006448 0.008067 -0.010863 0.001440 -0.015463 0.014565 0.009401 -0.003925 -0.002702 -0.005184 0.020283 -0.002946 0.028057 0.021323 -0.016254 0.010379 -0.012612 0.021128 -0.000643 0.006292 0.011883 0.043246 0.001923 0.024076 0.019450 0.003939 -0.009037 0.003739 0.011553 0.020243 -0.014447 0.016678 0.023202 0.012570 0.000354 -0.010314 -0.017056 -0.025980 -0.004291 0.006031 -0.015732 0.019885 0.002854 -0.002977 0.034276 -0.010917 0.002457 0.012136 -0.011271 -0.000268 0.025444 -0.009882 -0.026976 -0.030228 -0.001870 -0.004766 
佩兰今 0.006418 0.024809 0.003726 -0.020473 0.002126 0.010360 0.001770 0.004042 0.003235 -0.010535 -0.009206 0.007050 -0.001280 0.005673 -0.012656 -0.013568 0.006700 -0.003646 -0.005798 0.000697 -0.006071 -0.012863 0.005004 -0.010144 0.001771 0.005379 -0.002483 0.007885 0.018086 -0.008561 -0.005764 -0.002755 0.002837 -0.000642 -0.012022 -0.001365 -0.013647 0.009134 -0.010706 -0.009259 0.006797 -0.010410 -0.000154 -0.001222 -0.002516 0.013935 0.012331 0.005460 0.002381 0.003205 0.004683 0.004887 -0.016633 0.002910 0.005419 0.006291 0.003295 0.005821 0.007121 -0.009524 -0.004697 -0.003944 -0.006839 -0.014197 -0.002229 -0.002889 -0.007116 -0.004493 0.002402 -0.012723 -0.007754 -0.005713 0.014802 0.001403 -0.005715 -0.014709 0.002928 0.003310 -0.002334 -0.008636 0.000551 0.000198 0.003578 0.009365 0.009202 0.004629 -0.018617 -0.000612 0.011686 0.010873 -0.005511 0.000779 -0.007296 0.003563 0.016998 0.004642 -0.014587 -0.004982 -0.001913 0.003769 
代淮王 0.004399 0.005166 0.007489 -0.013189 -0.013875 0.024821 0.023198 0.028554 -0.003053 0.011498 -0.002324 -0.019700 0.007963 -0.016404 -0.011588 -0.001977 0.030902 0.015641 0.018451 -0.000335 -0.027692 0.002757 -0.000367 0.003234 0.009203 -0.003714 -0.036702 -0.006648 0.028614 -0.018477 -0.009475 -0.005264 0.019730 0.014551 -0.001160 0.001956 0.001641 -0.021765 0.016029 0.009104 -0.020160 -0.015164 0.033070 -0.021668 0.003463 -0.003063 0.001729 0.025763 -0.022807 -0.022181 0.016613 0.005809 -0.031700 0.011774 0.012054 0.013341 0.012034 0.009446 -0.000745 -0.009044 -0.001306 0.004550 -0.009485 0.005157 0.021853 0.016898 0.015464 -0.002525 0.005752 0.011717 -0.006642 -0.022727 0.017864 -0.017300 -0.010544 0.005033 -0.006677 0.001031 0.012739 -0.012779 -0.000008 -0.009623 -0.024929 0.010751 -0.011460 -0.025018 -0.012587 0.035020 0.010712 0.014608 -0.006104 -0.035793 -0.014432 -0.030814 -0.004821 -0.006397 -0.023392 0.002878 -0.021137 0.004300 
朱城 0.013040 -0.001251 0.009349 -0.009443 -0.012602 0.022172 0.027735 0.025828 0.002417 0.008459 0.001828 -0.010896 0.005291 -0.011235 -0.019566 -0.006760 0.033459 0.008508 0.004631 -0.005682 -0.024514 0.004596 -0.001253 0.009089 0.010887 -0.007715 -0.039537 0.000581 0.026171 -0.016766 -0.011257 0.000749 0.016836 0.012230 -0.010887 0.005899 -0.002698 -0.007907 0.011242 0.002511 -0.010606 -0.023166 0.023089 -0.011194 0.008917 0.000815 -0.009273 0.021346 -0.019191 -0.024102 0.009877 0.013762 -0.034897 0.013989 0.013188 0.009375 0.013983 0.010212 -0.001838 -0.013672 0.001439 0.009384 -0.006834 0.006225 0.021891 0.014569 0.012468 0.011518 0.000763 0.019040 -0.013743 -0.027922 0.024018 -0.015873 -0.009060 -0.000236 -0.001019 -0.008286 0.008239 -0.021850 0.002255 -0.007430 -0.013942 0.018083 -0.018480 -0.021035 -0.018406 0.032545 0.010656 0.011324 -0.006304 -0.039733 -0.009879 -0.039633 0.000112 0.000519 -0.025019 0.010439 -0.012322 -0.000340 
樊志勇 -0.004112 0.009230 -0.004715 0.001027 -0.003903 0.015242 0.015931 0.007518 0.006662 0.012172 -0.005498 -0.011782 0.012233 0.002082 0.001092 0.001496 0.026416 -0.002892 0.012219 0.001353 -0.018894 0.003950 0.016530 0.006011 -0.003769 -0.018630 -0.019727 0.016032 0.003357 -0.003539 -0.016300 -0.001739 0.014623 0.010987 -0.000554 0.015524 -0.005248 -0.008094 0.002820 0.002702 -0.012586 -0.011432 -0.008845 0.014196 -0.005342 0.002890 -0.013771 -0.004401 -0.016172 -0.009836 0.013227 0.010675 -0.015744 0.010542 0.014241 0.008371 0.011565 0.011506 -0.000000 0.002042 -0.000344 0.017306 -0.000547 0.013215 0.008111 0.003252 -0.010368 0.007493 0.007213 -0.001372 0.002308 -0.005942 0.007912 0.001721 0.010621 0.001560 -0.016678 0.014187 0.008636 -0.008371 -0.017551 0.001740 -0.004183 0.000946 0.002217 -0.007909 -0.008379 0.021488 0.019255 0.007985 0.010267 -0.009031 -0.012918 -0.021831 0.005763 0.006469 -0.010384 -0.004581 -0.008731 0.005871 
hydrid -0.002779 -0.002517 -0.008020 0.006495 -0.003498 0.000266 -0.016086 0.009767 0.006476 0.019711 0.020177 0.014549 0.000810 -0.010401 -0.018306 -0.004074 0.001862 0.004597 0.001895 0.013666 0.007504 0.008581 -0.015510 -0.002904 0.006345 0.007402 0.007064 -0.002379 0.002168 -0.005345 0.015515 0.009479 0.005267 -0.002325 -0.000246 0.009393 -0.003241 -0.002126 0.007412 -0.002430 -0.020960 0.000216 0.006440 -0.015990 0.007452 0.004821 0.003129 0.001142 -0.002037 0.014859 0.004570 -0.014258 0.002795 -0.006989 -0.014069 0.000542 -0.001182 0.023907 -0.017204 0.002528 -0.018262 0.001718 0.002739 0.004219 -0.009356 0.015954 -0.010169 0.019000 0.009234 0.005765 -0.005676 -0.007482 0.029333 0.003626 -0.019111 0.004563 0.024204 0.020275 -0.006798 -0.009963 -0.000613 0.008668 -0.009799 0.003013 -0.007663 0.017301 0.004980 -0.008458 0.015084 -0.002131 -0.005884 0.015414 -0.013477 -0.010185 0.007310 -0.013277 -0.003013 -0.022520 -0.015317 -0.000981 
吕宙 -0.011116 -0.000284 -0.005073 0.008165 -0.006173 0.011378 -0.003493 -0.002081 0.006867 0.010450 -0.003570 -0.002365 0.009642 -0.003025 0.004782 0.000176 0.000279 -0.002525 -0.011926 0.002585 0.002340 0.017869 0.003309 -0.016263 -0.002493 -0.005110 0.001584 0.013796 0.006150 -0.008007 0.010726 0.005423 -0.003041 0.004137 0.004129 -0.008551 -0.007549 0.009265 -0.003378 -0.004812 -0.002278 -0.012822 -0.004524 -0.002896 0.004230 0.009635 -0.010260 -0.008592 -0.004991 -0.016663 -0.006115 0.019898 0.006825 0.004552 0.005625 -0.004185 0.007233 0.012084 0.000524 -0.010528 0.006608 0.019701 -0.008384 0.013855 -0.008205 0.000016 -0.009389 0.012301 -0.008422 0.008574 0.002443 0.000093 0.002272 0.002553 -0.008696 0.003966 -0.006227 0.010335 0.012901 0.010982 -0.003982 0.002493 0.012527 0.009743 -0.017159 -0.001729 -0.006228 -0.001571 -0.012221 0.010798 0.021626 -0.005054 0.000082 -0.024008 0.015595 0.007923 -0.006114 0.003792 -0.008794 -0.008521 
加德均 -0.009537 0.012860 0.006054 0.006868 0.001996 0.002335 0.010255 0.000170 0.002628 0.001290 -0.003996 -0.002033 0.006140 0.009732 -0.004500 0.003213 0.003289 0.001868 -0.000052 0.007693 -0.004612 -0.004586 0.004283 0.018758 0.003205 0.005477 -0.000659 0.001632 0.005190 -0.014286 -0.001628 0.000720 0.001309 -0.011786 -0.003983 0.005443 0.008782 0.000269 0.006076 -0.002181 -0.006063 -0.011080 -0.003525 -0.008277 -0.000803 0.003109 0.013890 -0.004432 0.006184 -0.001823 0.000698 0.007098 0.003062 0.009302 0.005079 -0.008433 -0.007564 0.000637 -0.009640 0.003559 0.004238 -0.009068 -0.000258 -0.004366 -0.011649 0.003959 0.007577 -0.013875 0.002581 -0.007363 -0.002634 -0.006873 0.009670 0.004458 0.000693 0.002239 -0.002939 0.005625 0.002013 -0.011840 -0.000145 0.003741 -0.002717 0.003281 -0.000519 0.006563 -0.002362 -0.000559 0.003819 -0.006019 0.005451 -0.001232 -0.004171 0.002517 0.011650 0.001010 0.002749 -0.007957 -0.001573 -0.004334 
涂醒哲 -0.018687 0.022871 0.013537 -0.016513 0.012236 0.018096 0.019322 -0.020847 0.024679 -0.000527 0.008239 -0.007366 0.011757 0.016751 -0.002167 0.010976 -0.010956 -0.005493 0.005030 0.018350 -0.017258 0.025473 -0.009674 0.013628 -0.008902 0.000356 -0.000865 -0.002115 0.022049 -0.006066 0.005350 0.002454 0.008657 -0.013663 -0.015061 0.000605 -0.003716 0.001219 0.008398 0.012652 -0.010503 -0.006513 -0.010802 0.012155 -0.015632 -0.003078 0.021722 0.011982 0.000736 0.008607 0.001400 0.019897 -0.021859 -0.007824 -0.000844 0.014824 0.005221 -0.006798 -0.013447 -0.004912 0.000695 0.008752 -0.011923 -0.012032 -0.003876 -0.008896 0.010297 -0.004128 0.015831 -0.001003 0.029249 -0.015255 -0.004494 -0.018724 0.007295 -0.006007 -0.010299 0.008041 -0.017092 0.000737 0.004348 -0.021600 -0.016659 0.012065 0.013488 -0.008704 0.006217 0.000180 0.007776 0.014319 0.019241 -0.007709 -0.021128 -0.010493 -0.010073 -0.002830 -0.017217 0.013138 0.003137 -0.016283 
林武重 -0.002492 0.018351 0.001578 0.003344 -0.004193 0.012659 0.019046 0.004478 -0.001056 0.021855 -0.012612 0.010693 -0.015785 0.001031 0.012994 -0.008722 -0.001231 -0.010091 0.003601 0.006130 -0.014694 0.025769 -0.014407 0.016837 -0.012981 -0.011017 -0.003727 -0.015650 0.007263 0.006184 0.007516 -0.002533 0.005803 -0.010429 0.006837 -0.001559 -0.020098 -0.011961 0.009112 -0.009208 -0.017755 0.003119 -0.015958 -0.003029 -0.014709 -0.009275 0.005744 0.025086 -0.008077 -0.001340 0.000079 -0.007061 -0.012236 -0.022417 -0.013616 0.016327 -0.002428 0.020007 -0.004300 -0.000267 -0.025526 0.003209 -0.014672 0.008748 -0.009458 0.011467 -0.009616 -0.001546 -0.008049 -0.011142 0.003640 -0.019052 0.004648 -0.020706 0.004774 -0.027798 -0.013873 -0.001222 0.011838 0.004140 0.020320 -0.019043 -0.011820 0.001220 -0.003681 -0.025692 -0.014051 0.009915 -0.000465 -0.019545 0.002475 -0.009425 0.004322 -0.004951 -0.004223 -0.010744 -0.004786 0.010415 -0.002720 -0.003955 
吴欣修 -0.006179 0.011875 -0.006172 0.007181 -0.007341 0.002165 -0.003230 -0.008792 0.012021 0.002626 -0.005495 0.002464 0.006269 0.000559 -0.000279 0.005758 0.004058 -0.012307 0.002507 0.018300 -0.017504 0.022343 -0.010278 0.003698 0.013275 -0.003273 0.007167 0.002808 0.005485 -0.016927 -0.002241 0.011922 0.002880 0.010615 -0.005845 -0.005885 -0.020175 0.008578 0.001569 0.009908 -0.009815 -0.007012 0.000966 -0.004754 -0.000309 0.002145 -0.010770 0.008469 -0.017212 -0.005759 0.005944 0.021552 -0.004286 0.011089 0.007935 0.018824 0.016584 0.008457 0.003458 -0.013127 0.000154 0.019293 -0.011229 0.017562 0.000076 0.015192 0.000995 0.010658 -0.013816 0.009626 0.000719 -0.007792 0.000167 -0.009485 0.000981 0.005280 0.000193 0.017592 0.007183 -0.007565 -0.013529 -0.002660 -0.002840 0.014218 -0.016151 -0.001740 -0.010000 0.013180 0.004419 0.007737 0.020313 -0.012098 -0.013805 0.004311 0.002783 0.014115 -0.010241 0.002348 -0.007496 -0.001161 
景衡 0.006390 0.011506 0.004830 -0.007167 -0.012283 0.005096 0.015501 0.015292 0.008739 0.012325 0.004894 -0.008986 -0.003895 -0.007023 -0.012161 0.000213 0.004718 0.010737 -0.005605 -0.003215 -0.025906 0.000996 0.005689 0.002848 0.003384 -0.003605 -0.007977 -0.008431 0.021894 -0.020765 0.000309 0.016129 0.002948 0.005636 -0.003802 0.011797 -0.011535 0.010079 -0.013644 0.002863 -0.002473 0.003477 -0.021704 -0.002951 0.013906 0.002821 -0.003224 0.030793 -0.018334 -0.028939 0.007585 0.002575 -0.022695 0.000017 0.009887 0.006519 0.006142 0.007116 0.013668 -0.002056 -0.008842 -0.010675 -0.002298 0.002216 0.007731 0.010542 -0.009627 0.009119 -0.009086 0.006969 -0.011757 -0.009790 -0.000303 -0.006950 -0.008286 0.002750 -0.000955 -0.000446 0.015734 -0.020342 0.001705 0.010578 -0.021673 0.001541 -0.009685 -0.015067 -0.015790 0.024529 0.004846 0.009257 -0.000478 -0.018809 -0.010835 -0.014623 -0.006540 0.005171 -0.005020 0.002442 0.001375 0.007501 
桑哈 0.007859 0.003857 0.000076 -0.004303 -0.003048 -0.006216 0.019514 0.012195 0.004064 0.012551 -0.005698 -0.005328 0.004992 0.001879 -0.008400 -0.004233 -0.001819 -0.000668 0.004332 0.005177 -0.012415 -0.008535 -0.007166 0.008889 0.010344 0.003904 -0.001657 -0.014490 0.006414 0.000741 0.002198 -0.008279 -0.001610 -0.007548 -0.007262 -0.005756 -0.001405 0.006655 -0.009102 -0.003474 0.007142 0.009284 -0.007219 -0.002199 0.001931 -0.003994 -0.007107 0.018688 -0.006832 -0.018296 -0.019325 -0.006405 -0.015884 -0.008313 0.002940 -0.002423 0.007607 0.001202 0.006089 0.003933 0.000816 -0.003613 0.002715 0.014965 0.008656 0.000143 -0.002036 -0.006995 0.005958 0.001244 -0.015366 -0.013741 0.010746 -0.003570 -0.011562 -0.000059 -0.012309 -0.005772 0.002249 0.001676 0.012310 0.000310 0.003384 -0.001880 0.000021 -0.016973 -0.003632 0.021969 0.005872 0.005608 0.000227 -0.026803 -0.011893 -0.007434 -0.005193 -0.004403 0.005248 0.000610 -0.003485 0.012844 
苏田村 0.006887 0.001491 -0.008814 -0.010248 -0.004787 0.010557 0.015178 -0.003045 0.005622 0.005287 -0.007639 -0.002561 -0.000095 -0.009666 -0.002966 0.005746 0.011823 -0.004551 -0.000401 0.009316 -0.013588 0.015657 0.001762 0.013311 -0.005078 -0.022440 -0.007494 0.002781 -0.002521 -0.012355 -0.006849 0.002577 0.022246 0.002911 0.010494 0.006923 -0.010646 -0.001485 0.002218 0.004390 -0.013170 -0.012702 -0.010930 -0.002082 -0.001398 0.004302 -0.016259 -0.018097 -0.013816 -0.005367 0.005894 0.025995 -0.012215 0.015441 0.009458 0.015063 0.002888 0.007055 0.001989 -0.018226 0.004969 0.010706 -0.006259 0.025342 0.008866 0.019542 -0.013419 0.002361 0.013880 0.016921 0.001766 -0.013619 0.007460 -0.020215 -0.001769 0.004852 -0.004677 0.007472 0.006771 0.001613 0.003907 0.003803 -0.023183 -0.003418 -0.003269 -0.015798 -0.008130 0.028780 0.008886 0.014835 0.026530 -0.004495 -0.008459 -0.004676 -0.004916 -0.003698 -0.001687 0.014803 -0.013190 -0.014550 
黄润琼 0.001968 0.007784 0.003011 -0.008535 -0.004138 0.005322 0.011777 0.011292 0.017131 0.014567 -0.003173 -0.006622 0.005109 -0.000600 -0.012051 -0.001630 0.014091 0.001563 -0.008642 0.008838 -0.017956 0.007973 -0.000162 0.003631 0.010094 -0.009291 -0.007461 -0.007314 0.017514 -0.013513 0.002192 0.011771 0.003500 0.012101 0.001347 0.000749 -0.005400 0.003641 -0.019903 -0.000220 -0.003922 0.009668 -0.004555 0.005941 0.003113 0.001515 -0.005766 0.012776 -0.002576 -0.017684 -0.006374 0.003499 -0.014906 0.007000 0.011175 0.003363 0.006480 0.005163 -0.003340 -0.003142 -0.002322 -0.001610 -0.010387 0.012970 0.004733 0.009870 -0.006352 0.005752 -0.002341 0.014556 -0.005983 -0.012669 0.000458 -0.000769 0.002811 0.001638 -0.008019 0.002774 0.011446 0.001467 0.002621 0.009892 -0.000129 0.008213 -0.009521 -0.012781 -0.011423 0.011634 -0.000991 0.005666 0.004790 -0.016552 -0.010075 -0.014548 -0.001069 0.011389 -0.002024 -0.006500 0.001264 0.000461 
koudous -0.006919 0.030996 -0.010012 -0.005914 0.003940 0.009011 0.021685 0.024838 0.023999 0.018342 0.007054 -0.015365 -0.003061 -0.011292 -0.017058 -0.008114 0.019319 -0.005841 0.023710 0.003376 -0.021719 0.013099 -0.007896 0.008280 0.017433 -0.029137 -0.021939 -0.007122 0.027917 -0.034712 0.014734 0.004032 -0.001696 -0.000814 0.010682 0.017582 -0.007946 -0.015391 -0.006158 -0.014767 -0.018215 -0.014335 0.016088 -0.019643 -0.007377 0.017864 0.011186 -0.003631 -0.010721 -0.002558 0.010081 0.020485 -0.015941 0.007272 -0.005713 0.003696 0.010957 0.015001 -0.025108 -0.031664 -0.001385 0.007982 -0.023111 0.024047 -0.014590 0.016943 0.011687 0.005336 0.001295 0.020889 -0.006321 -0.024486 0.041361 -0.010453 -0.025086 -0.010681 0.010394 0.003514 0.009872 -0.022884 0.004339 0.000716 -0.030098 0.000796 -0.018840 -0.019032 -0.014785 0.019118 0.030789 -0.004105 0.004026 -0.028521 -0.018734 -0.025641 0.006291 -0.002633 -0.003677 -0.005373 -0.026410 -0.011488 
seihon -0.008033 0.029266 -0.006036 -0.007497 -0.000192 0.005198 0.029787 0.026042 0.024779 0.018416 0.000492 -0.014163 0.004139 -0.010806 -0.014165 -0.005120 0.024203 -0.006067 0.020641 0.006729 -0.020749 0.004292 -0.010116 0.010282 0.015024 -0.026128 -0.024448 -0.000442 0.022344 -0.039286 0.011606 0.000948 0.004193 -0.004823 0.008277 0.022096 -0.003591 -0.008823 -0.005972 -0.013249 -0.011390 -0.015955 0.014977 -0.017259 -0.001546 0.013362 0.014055 -0.001333 -0.006509 -0.009671 0.015677 0.015372 -0.012788 0.001565 0.002470 0.002696 0.014920 0.009520 -0.023297 -0.028310 0.002829 0.002389 -0.024113 0.032765 -0.007979 0.017236 0.011442 0.000591 0.000400 0.016962 -0.003256 -0.026975 0.039799 -0.011311 -0.014281 -0.007013 0.008159 0.006294 0.014619 -0.026655 0.002454 -0.002264 -0.023141 0.008675 -0.014295 -0.016434 -0.017911 0.021215 0.029572 -0.009179 0.002127 -0.028250 -0.014787 -0.031572 0.003851 -0.003938 -0.008109 -0.005117 -0.024215 -0.009042 
eslyn -0.003497 0.025683 -0.003517 0.008747 -0.002726 0.017493 0.019068 0.017568 0.018282 0.001566 0.014240 -0.002962 0.005380 -0.004723 -0.010802 -0.005904 -0.002237 -0.002560 0.003652 0.002142 -0.021664 0.019233 -0.018610 0.004508 0.009999 -0.020969 -0.004066 0.001493 0.016827 -0.020153 0.004616 0.016563 0.005590 0.016177 0.001565 0.024326 -0.005812 0.003162 -0.006626 -0.008179 -0.004225 0.004116 -0.002614 -0.014137 0.011076 0.012102 0.009797 0.008190 0.004335 -0.023001 0.010205 0.000822 -0.007651 -0.010057 0.018222 0.002264 0.021411 -0.000737 -0.010000 -0.008063 -0.003051 -0.004476 -0.013807 0.006430 -0.019666 -0.000765 0.001761 0.005404 -0.002329 0.023364 0.001710 -0.008832 0.022463 -0.016150 -0.003886 0.003782 0.021834 0.009641 -0.000940 -0.026958 -0.005895 0.003360 -0.014790 -0.000266 -0.032967 -0.004348 -0.005783 0.021356 0.031630 -0.011234 -0.006800 -0.020333 -0.025028 -0.020082 -0.008668 -0.010070 0.005202 -0.009909 -0.022892 -0.015562 
incorruptible -0.001463 0.028752 0.007383 0.002906 0.004000 0.012490 0.017770 0.017844 0.010755 0.014591 0.008340 0.001074 0.002951 -0.008981 -0.016571 0.001967 0.001542 -0.005804 0.008498 -0.008305 -0.007438 0.018287 -0.013729 0.007413 0.013806 -0.012935 -0.005025 0.003944 0.016145 -0.018899 0.009236 0.012381 0.001145 0.006736 -0.002100 0.028146 -0.001129 -0.004614 0.000340 -0.011820 -0.001492 0.000016 0.001295 -0.013582 0.014423 0.013924 0.000487 0.012974 -0.009704 -0.015135 0.012628 0.007857 -0.009301 -0.000392 0.007152 -0.005114 0.019088 0.000631 -0.006882 -0.005752 -0.002336 -0.001599 -0.010275 0.011033 -0.009599 0.012330 -0.003401 -0.001279 -0.002353 0.016855 -0.013265 -0.004526 0.024473 -0.017182 -0.019008 0.014431 0.028386 0.002685 0.004692 -0.019129 -0.002726 0.007065 -0.020328 0.000142 -0.015562 -0.001992 -0.008217 0.026768 0.023348 -0.005620 0.005920 -0.026013 -0.014191 -0.022035 -0.002735 0.000192 -0.003651 0.001317 -0.020881 -0.017809 
徐述湘 -0.004652 0.009833 -0.005668 0.006629 -0.001454 0.017069 0.001030 -0.005211 0.019007 0.003830 0.006292 0.000028 0.022322 -0.000118 0.010725 -0.000747 -0.006871 -0.013924 -0.004275 -0.001832 -0.007874 0.021172 0.005888 -0.000495 0.006357 -0.006348 -0.000824 0.009019 0.002884 -0.000722 -0.015199 -0.001942 0.009142 -0.008384 0.003408 0.004493 -0.002367 -0.005493 -0.000412 0.001329 -0.012779 -0.009010 -0.010543 0.006781 -0.002908 0.002915 -0.008337 0.004835 -0.021153 -0.001085 0.002174 0.028671 -0.005372 0.000496 0.012140 0.005522 0.010624 -0.003230 -0.012952 -0.010215 0.017174 0.009447 -0.004100 0.007245 -0.005698 -0.002635 -0.007951 0.005411 -0.003416 -0.000894 0.000269 0.000924 -0.005518 -0.003641 0.000978 0.001190 0.006357 0.023810 -0.003041 0.005687 -0.008594 0.003621 0.001977 0.013417 -0.005285 0.010271 -0.000537 0.000690 0.003477 0.001355 0.006543 -0.004965 -0.018005 -0.006605 0.010382 0.017107 -0.002122 -0.001295 -0.000719 -0.007831 
gamber 0.008837 0.028011 -0.015177 0.025970 -0.009308 -0.008279 0.020732 0.005127 0.016143 -0.023523 -0.012258 -0.020403 0.005197 0.010397 -0.018253 0.010243 0.001781 -0.001945 0.020777 0.012465 -0.012971 -0.000969 -0.030765 0.029520 0.000467 -0.011252 -0.001870 -0.016751 0.004512 -0.013787 -0.003661 0.024990 0.014131 0.002326 0.005636 0.013084 0.002717 -0.015715 0.000488 -0.008649 -0.015130 -0.018501 -0.026274 0.028345 -0.022037 0.023044 -0.003609 -0.006126 -0.014445 -0.007876 0.003728 0.030529 0.002827 0.013811 0.022782 0.004001 -0.001567 0.001581 0.005911 -0.013434 -0.003008 -0.000016 -0.004246 0.009958 0.009177 0.023370 0.006537 0.011467 -0.002210 0.037567 -0.021782 -0.000994 0.016149 -0.025987 0.004270 -0.004669 0.018312 0.006271 0.009824 -0.010146 -0.000319 0.010426 -0.017694 0.021779 -0.017064 -0.030606 -0.009185 0.033736 -0.000396 0.020145 0.005561 0.005090 -0.030423 0.000658 0.028454 0.022329 -0.004243 -0.014391 -0.017254 -0.016588 
龙镇西 0.006352 0.002337 -0.001119 -0.004653 0.006770 -0.006846 0.004460 0.002872 0.010730 0.003817 -0.010200 -0.017418 0.005875 0.012429 -0.000922 0.011888 -0.002737 0.020084 -0.000264 0.013946 -0.010958 -0.006747 -0.008171 0.014628 -0.005669 -0.013998 -0.010776 -0.000932 0.000403 -0.014904 -0.003689 0.002286 0.016317 0.001469 -0.002395 0.000973 -0.007308 0.008700 0.004755 -0.005757 -0.015171 -0.013248 -0.013299 0.011720 -0.004357 0.004154 -0.018246 0.002863 0.001614 -0.012760 0.001003 0.017328 -0.017680 -0.001382 0.009946 0.002841 -0.001314 0.011140 0.009098 -0.016608 -0.011951 0.009427 -0.007729 0.014279 0.005955 0.014646 -0.000185 0.004873 -0.000861 0.017520 -0.001223 -0.011088 -0.000131 -0.012945 -0.001177 -0.000896 -0.012180 -0.003785 -0.003855 -0.013866 -0.009845 -0.001027 0.007571 0.014715 -0.019971 -0.014544 0.005798 0.028916 0.014092 0.001732 0.016599 -0.005336 0.000103 -0.008341 0.013069 0.006794 -0.011844 -0.004317 -0.016506 -0.007347 
罗什寺 0.009625 0.011838 -0.007107 -0.005310 -0.004341 0.004704 0.005351 0.013480 0.004720 -0.000107 -0.004618 -0.011444 0.004099 -0.000826 -0.002102 -0.001842 0.007863 -0.010029 0.007965 -0.004066 -0.017155 0.007230 -0.005619 0.008908 0.002737 -0.017798 -0.002681 -0.006935 0.010663 -0.018701 -0.000750 0.013520 0.002498 0.009625 -0.008090 0.003939 -0.005820 0.003126 -0.005114 0.002776 -0.013769 -0.005984 -0.003618 0.011053 -0.003057 -0.001281 -0.008082 0.000180 -0.007015 -0.018522 0.004858 0.015698 -0.013354 0.001655 0.011286 0.008353 0.018231 0.008811 0.001634 -0.014833 -0.001072 0.018097 -0.005697 0.006139 -0.000277 0.008062 -0.002076 0.005075 -0.000387 0.014507 0.005944 0.000079 0.009736 -0.005960 -0.001490 0.003076 0.002497 0.015385 -0.000182 0.002743 0.002535 -0.005971 -0.001204 0.002124 -0.010301 -0.007868 -0.006201 0.012680 0.010608 0.009456 0.013812 -0.001469 -0.008577 -0.011334 0.005189 0.007303 -0.007450 -0.001066 -0.004662 -0.012875 
寇尔奶奶 0.001904 0.016586 0.001955 -0.006178 0.012385 0.008770 0.017861 0.007076 0.002540 0.006339 0.005225 -0.006182 -0.001824 -0.005393 0.000189 -0.001810 -0.002338 -0.001925 -0.008517 -0.006440 -0.015263 0.012344 -0.005861 0.006491 0.011795 0.003241 -0.007200 -0.011654 0.013562 -0.009417 -0.006507 0.004752 -0.009173 0.002385 -0.003995 0.008990 -0.008777 0.005015 -0.000509 0.000778 -0.007854 -0.005928 -0.006892 -0.006824 0.010740 0.002257 0.000788 0.000670 -0.003750 -0.022851 0.001818 -0.016931 -0.011533 -0.000119 0.003123 -0.015733 0.000898 0.000091 -0.005052 -0.002671 -0.008840 -0.001438 -0.000571 0.004843 0.005258 -0.005884 -0.003314 0.001266 -0.007232 0.011199 -0.000667 -0.011930 0.014484 -0.008342 0.009716 0.005486 0.002046 -0.011381 -0.000558 -0.013632 0.003030 -0.006881 -0.011574 0.001848 -0.007357 -0.010792 -0.009893 0.009871 0.006586 -0.006972 -0.009704 -0.012854 -0.000240 -0.013708 -0.012247 -0.018178 0.001120 -0.000698 -0.014217 -0.005709 
夹被 0.011112 0.008754 -0.006485 0.003056 0.007498 -0.001327 -0.008547 0.001878 -0.011454 0.002254 -0.007470 0.006480 -0.007639 0.012183 0.003030 0.009122 -0.015704 -0.001467 -0.019982 -0.011105 -0.009072 0.008872 -0.004537 -0.014922 0.004569 -0.001133 0.011922 0.011990 0.010898 -0.042609 0.010807 0.008425 -0.002118 0.004586 -0.002270 0.015529 -0.011434 0.017183 0.020073 -0.001385 -0.002681 -0.012060 -0.007053 0.007584 0.014937 -0.007352 -0.008125 0.014903 0.000296 -0.037735 -0.010851 0.006500 -0.026879 0.003914 0.005354 0.011729 -0.004755 0.020377 0.009762 -0.019519 -0.006338 -0.004566 -0.008778 0.005157 0.007326 0.001439 0.002375 0.006743 -0.001474 0.018104 -0.008128 -0.029014 -0.000937 0.010661 0.005782 0.004225 -0.002186 0.005842 -0.003986 -0.006815 0.002633 -0.030212 -0.003282 0.007343 -0.005720 -0.020954 -0.026351 0.012827 0.004893 -0.014819 -0.005514 -0.004415 0.005570 -0.015837 0.006286 -0.002521 -0.005657 -0.009249 -0.009207 -0.011525 
奥森光 0.008520 0.003748 0.003761 0.004224 -0.001927 0.000954 0.009134 0.009359 0.009201 -0.001020 0.005608 0.001259 -0.009964 0.005970 0.000288 0.000226 -0.001182 0.003681 -0.012682 0.001462 -0.009348 0.000679 -0.002851 0.006323 0.000363 -0.012160 -0.004157 -0.003454 0.006338 -0.008756 -0.002067 0.009587 -0.005440 0.006179 -0.010239 0.002556 -0.001788 0.003845 -0.005275 -0.006732 -0.007067 -0.001467 -0.009032 0.001297 -0.001897 -0.001845 -0.007013 0.010457 0.002526 -0.008785 0.004307 0.010464 -0.007216 0.003872 0.001266 0.001266 -0.000559 -0.002134 -0.008602 -0.003242 -0.001575 0.003413 -0.005019 -0.002976 -0.003307 0.017393 0.002650 -0.001538 0.015600 0.006542 -0.007168 -0.014253 0.005676 0.005817 -0.000801 -0.003900 -0.004544 -0.000615 0.004766 0.003463 0.006775 -0.007503 -0.007394 0.001825 -0.006567 -0.008702 -0.010317 0.011634 0.015840 0.002635 -0.005208 -0.006131 -0.007840 -0.004142 -0.001886 -0.002211 0.005957 0.002907 -0.003708 0.008309 
神林纳斯 -0.008013 0.009554 -0.000145 -0.008082 -0.003655 0.000362 0.003952 0.004072 -0.003325 0.011779 0.006413 -0.000479 0.003340 -0.006998 -0.003551 0.003782 -0.006427 0.007913 0.007232 -0.007279 -0.008978 -0.003618 -0.003205 -0.000015 0.006536 0.006944 -0.005353 -0.008091 0.004800 -0.009719 -0.003131 0.011103 0.006395 0.008012 0.000626 0.010668 -0.003531 -0.003815 -0.005395 0.003890 0.004385 0.003011 -0.000546 -0.002268 0.000546 -0.001714 0.004224 -0.002866 -0.008977 -0.012745 0.005220 0.003170 -0.003861 -0.001893 0.010663 -0.003722 0.005074 0.000115 -0.003035 0.005273 -0.005875 0.010023 -0.000113 -0.005102 0.006406 -0.002857 -0.000009 0.000914 -0.004108 0.014777 0.004273 -0.000156 0.003912 0.001205 0.001320 0.005305 -0.000942 -0.000797 0.000141 -0.006417 0.001417 0.002194 -0.001649 -0.000263 -0.008378 0.001858 0.006348 0.002107 0.010498 -0.006087 -0.000914 -0.009971 -0.006324 -0.013273 -0.006525 -0.006343 -0.007535 -0.002866 -0.012350 0.002295 
索金奇特 -0.003440 0.021158 0.004839 -0.001650 0.003216 0.010838 0.014862 0.005394 0.004919 0.004250 0.013940 0.008090 0.000108 -0.004329 0.004362 -0.000494 -0.004409 0.005189 0.006211 0.001174 -0.005519 0.005417 -0.007115 -0.003545 0.013716 0.002030 0.007463 0.005787 0.005477 -0.005460 0.002254 0.014374 0.005157 -0.001803 0.004174 0.000219 -0.007619 0.003032 0.002899 0.000694 0.007715 0.005970 -0.004370 -0.000312 0.000628 0.003336 0.002274 -0.003097 0.007308 -0.016938 -0.004528 -0.000301 -0.001465 -0.012327 0.004929 -0.013960 0.006166 0.001736 -0.000176 0.005571 -0.002598 -0.003201 0.005276 0.010153 0.001404 -0.003992 -0.006063 0.001205 -0.011343 0.005051 0.000583 0.009432 0.007295 -0.006033 0.011883 -0.002813 -0.001746 -0.003844 -0.014481 -0.009863 -0.002747 -0.009808 -0.011067 -0.006459 0.000807 -0.006380 -0.013094 -0.001466 0.007622 -0.006339 -0.017702 -0.020376 0.003194 -0.019797 -0.003541 -0.006010 -0.007281 -0.003426 -0.010134 -0.005989 
lollipopchainsaw -0.000985 0.005393 0.000271 -0.002231 0.004870 0.012826 0.008911 -0.005362 0.010058 0.008201 0.003009 -0.002204 -0.011281 -0.002123 0.000413 0.000029 0.001377 0.011270 0.004371 -0.013365 -0.020657 0.008238 0.004077 -0.001866 -0.001215 -0.009620 -0.007573 -0.011369 0.020774 -0.015871 -0.000741 0.012633 -0.009169 0.000319 -0.013714 0.017150 0.004941 0.009388 -0.008587 -0.008626 -0.009426 0.011678 -0.017224 0.003555 0.007794 0.003002 -0.000028 0.014516 -0.010565 -0.017648 -0.001412 -0.000955 -0.017671 -0.004850 0.006887 0.001228 0.009383 0.010151 0.007976 -0.000508 0.001484 0.004040 -0.012750 0.009202 -0.004861 0.017382 -0.002712 0.018464 -0.003604 0.017662 -0.009062 -0.015002 0.011386 0.004008 -0.009713 0.005444 0.008897 0.001913 0.013584 -0.008249 -0.003517 0.001607 -0.021970 0.012172 -0.015404 -0.009484 -0.021131 0.024744 0.020426 0.005769 0.003427 -0.017179 -0.013223 -0.016641 -0.007391 -0.001332 -0.015965 -0.003830 -0.010253 -0.003248 
陆联 0.005266 0.010260 -0.006895 -0.003957 -0.005602 -0.004019 0.002467 -0.001614 0.008935 -0.000835 0.004523 -0.003482 0.003130 0.012264 -0.008311 0.001007 -0.002532 -0.002765 0.007120 0.010136 -0.003774 -0.005052 0.002301 0.012649 -0.001965 0.006336 -0.003895 -0.002446 0.022018 -0.013952 -0.006460 0.024957 -0.005273 0.003676 -0.011573 0.020468 -0.006519 0.007565 0.003556 0.000823 -0.003714 -0.003505 -0.004919 0.001943 -0.000805 0.012102 -0.008077 0.000832 -0.007600 -0.010870 0.004382 0.016243 0.004025 0.010368 -0.005212 -0.002318 0.002946 -0.002474 -0.004040 -0.005736 0.014057 0.007170 -0.011639 -0.000957 -0.009743 0.012776 0.000982 0.011012 0.006366 0.010532 -0.010278 -0.007170 -0.002474 -0.005454 -0.002986 0.002521 -0.001429 -0.001665 0.002678 -0.013550 0.003004 -0.005458 0.009926 0.007040 -0.010941 0.006169 -0.015994 0.005169 0.009229 -0.009318 0.006420 0.001246 -0.014297 -0.009350 0.005675 0.005574 0.000817 0.007083 -0.000075 -0.008096 
zyzj -0.001884 -0.015239 -0.000544 0.006733 -0.009436 0.007821 -0.005598 -0.000240 0.005130 0.010674 0.015990 -0.012219 0.008499 -0.006313 0.000217 0.005574 -0.000778 0.000772 -0.010521 0.009598 0.001825 0.006965 0.004772 -0.007199 -0.001826 0.003877 0.008988 0.006275 0.000268 -0.003952 -0.005448 0.001901 0.008626 0.007543 -0.000498 0.005091 0.001742 -0.001404 -0.001863 0.000110 -0.010072 -0.004393 0.006285 0.000827 -0.006322 0.000280 -0.005453 -0.001718 -0.010180 -0.003312 0.010170 0.010199 0.010005 0.005289 -0.002345 0.000664 0.004323 -0.002679 -0.004970 -0.016284 0.012303 0.002519 -0.003947 0.008142 -0.009234 0.005716 -0.000331 0.003538 0.008167 0.004841 0.006084 0.004239 -0.007482 0.001693 -0.001689 0.003759 0.001211 -0.003297 0.006794 -0.007273 -0.012934 0.001769 0.004601 0.007440 -0.002586 -0.003402 -0.015067 0.009395 -0.003493 -0.011276 -0.003387 0.014931 -0.000666 -0.008092 0.001568 0.010060 -0.010009 0.023141 -0.006400 -0.009703 
时赛库 0.005871 0.016359 -0.013318 -0.002448 0.016675 -0.007774 -0.012338 0.012993 -0.000579 0.002186 -0.001176 0.004862 -0.009357 0.012323 -0.005359 0.007806 -0.016534 -0.000869 -0.012943 -0.014098 -0.013006 0.015588 -0.002038 -0.007511 0.002945 0.004345 -0.008663 0.003513 0.009379 -0.031360 0.002251 0.022012 0.001869 0.002946 0.004108 0.013450 -0.026630 0.011424 0.017325 -0.013032 0.009388 -0.015168 0.003116 0.008789 0.011944 0.014959 0.002221 0.011298 0.001406 -0.025755 -0.007809 0.001608 -0.022404 -0.002105 -0.004705 0.009748 -0.001919 0.013107 -0.001662 -0.005348 0.008162 0.006601 -0.002148 0.010079 0.001715 0.000312 -0.006237 0.000426 0.006975 0.015276 -0.015649 -0.017931 0.001686 0.004626 0.010916 -0.000407 -0.002984 0.003030 -0.007783 -0.008381 0.004596 -0.010470 -0.010420 0.006461 -0.015054 -0.014935 -0.023815 0.009751 0.012443 -0.001202 -0.016624 -0.001378 -0.014660 -0.003789 -0.002688 0.000410 -0.007857 -0.006178 -0.001363 -0.000638 
范龙法 -0.005853 0.025130 -0.003018 -0.008678 -0.006740 0.010013 0.007441 0.003370 0.007488 0.011496 0.000299 -0.001845 0.000299 -0.003566 -0.008282 0.006960 0.015195 -0.004536 -0.010552 -0.003945 -0.008941 0.002074 0.008111 0.007069 0.004912 0.003817 -0.001375 -0.004452 0.017546 -0.005185 0.000878 0.014322 -0.002957 -0.004360 0.004026 0.004582 -0.018812 0.002435 -0.003241 -0.000675 -0.010914 -0.002723 0.002210 0.008530 0.002213 -0.004129 -0.012812 0.003143 -0.002349 -0.017453 -0.003468 0.007019 -0.008882 0.002583 0.011710 -0.002506 0.012424 0.002827 -0.004612 0.000915 -0.000637 0.004521 -0.002815 0.013374 0.006405 0.001733 -0.004370 0.007915 0.000148 -0.001754 -0.004896 0.000678 -0.001055 0.002958 -0.000194 -0.000798 -0.010153 0.001963 0.006859 -0.007052 -0.005046 -0.001032 -0.002764 0.001616 -0.002189 -0.006206 -0.001382 0.010776 0.003434 -0.006604 0.003512 -0.017396 -0.004304 -0.014579 0.008266 -0.009405 -0.003647 0.001997 0.000473 0.002501 
凯顿 -0.000187 0.015642 0.001589 -0.006338 0.004767 0.018267 0.029230 0.015909 0.020259 0.008409 -0.005063 -0.000803 -0.004097 -0.003352 -0.014294 0.007856 0.005802 -0.011517 0.007777 0.000484 -0.014256 0.007926 -0.004005 0.005077 0.017713 -0.005710 -0.003432 -0.002735 0.025054 -0.026121 -0.001432 0.011937 0.003870 -0.001129 -0.004758 0.004853 -0.002339 -0.003967 -0.017521 -0.003294 -0.002408 -0.011786 -0.008998 0.004613 0.004833 -0.000113 -0.001055 0.011289 -0.014430 -0.017842 0.000865 0.009997 -0.014123 0.000379 0.011215 0.004682 0.012357 0.003892 0.001921 -0.006274 0.005306 0.011393 -0.004925 0.013161 0.007036 0.019485 -0.012139 0.010145 -0.002827 0.015284 -0.009242 -0.022685 0.017178 -0.004908 -0.012593 -0.008540 0.004789 -0.002618 0.002018 -0.025544 0.006401 0.001343 -0.013648 0.012641 -0.016712 -0.023317 -0.023426 0.027151 0.009674 0.000266 0.007790 -0.031183 -0.014842 -0.026687 0.007868 -0.010309 -0.007680 0.003462 -0.016820 -0.000464 
王尧先生 0.003614 0.004662 0.007660 0.000965 -0.004068 0.005671 0.010211 0.019381 0.004222 0.005081 -0.000822 -0.007275 0.012005 -0.000150 -0.009100 -0.004747 0.016490 0.001954 0.002008 0.006289 -0.013413 0.003102 0.000237 0.002540 0.002784 -0.014701 -0.008764 -0.006673 0.015126 -0.015070 0.001339 0.013670 0.007709 0.007978 -0.003843 0.001865 -0.000947 -0.002066 -0.002671 -0.005005 -0.000529 0.001326 0.001875 0.003902 0.002111 0.002898 -0.000177 0.012775 -0.016216 -0.018656 0.008877 0.002017 -0.011701 0.003952 0.008810 -0.004183 0.007725 0.003656 0.003668 -0.001134 0.002297 0.011101 -0.009901 0.000046 -0.003709 0.012657 -0.011430 0.007979 -0.008960 0.017568 -0.008021 -0.012207 0.003348 -0.002290 -0.003461 0.001779 -0.004576 0.011539 0.015106 -0.006468 -0.000961 0.003470 -0.007021 0.008977 -0.011142 -0.002680 -0.008500 0.009478 0.004118 0.004810 0.003509 -0.016599 -0.005811 -0.005991 -0.005970 -0.002549 -0.006839 -0.001644 -0.006628 -0.009340 
萨迦格言 0.006870 0.015643 0.003853 0.004518 -0.000517 0.010737 0.003084 0.020679 0.008069 0.001836 -0.005026 -0.004879 0.012884 0.001148 -0.004235 -0.002242 0.017189 0.011107 0.015166 0.007407 -0.017405 0.001398 -0.002227 0.008363 0.009496 0.003362 -0.012068 -0.010013 0.010961 -0.010423 -0.003384 0.000975 0.006888 0.011933 0.006221 0.011053 -0.002249 -0.010120 -0.006056 -0.008163 0.001308 -0.005917 -0.004103 -0.001965 -0.003554 0.002908 -0.003970 -0.000508 -0.014081 -0.014505 -0.003288 0.002914 -0.005924 0.000167 0.007392 0.004176 0.002846 0.002693 0.004265 0.003501 0.005283 -0.002611 -0.004275 0.004767 0.001408 0.006012 -0.008207 0.005040 0.002165 0.006585 -0.001984 -0.011634 0.019343 -0.002878 -0.011163 -0.003345 0.003187 0.005244 0.012165 -0.006494 -0.002744 0.011281 -0.009172 -0.007247 0.004135 0.001887 -0.006577 0.017955 0.007084 0.002144 -0.009381 -0.016225 -0.005835 -0.013105 -0.005207 -0.001682 -0.014829 0.002392 -0.004313 0.003243 
胡四醉 0.015338 -0.006283 0.009281 0.006280 -0.006011 0.021100 0.015898 0.024557 0.019050 0.001522 -0.006615 0.000026 -0.007703 -0.009739 -0.006316 -0.002780 -0.005390 0.004821 0.002064 -0.002236 -0.008054 -0.002773 0.000252 0.013794 -0.004869 -0.012417 -0.008437 -0.003044 0.009964 -0.008850 -0.000150 0.010838 0.013478 -0.002862 -0.008892 0.012421 0.003148 -0.000294 -0.007835 -0.006160 0.005229 -0.002021 -0.011884 0.000658 0.011131 0.004386 0.007019 0.018226 -0.004785 -0.019543 0.007027 -0.000169 -0.011031 -0.009489 0.020374 0.008542 0.018019 0.011528 0.020587 -0.002385 0.001996 0.013231 0.000981 0.002620 -0.001835 0.013677 0.016611 0.009343 -0.011627 0.012123 -0.009399 -0.013273 0.001001 -0.005577 -0.014578 0.009844 0.002331 0.004055 0.004140 -0.008853 -0.003429 -0.006420 -0.020337 0.011884 -0.014236 -0.007570 -0.009677 0.025056 0.020791 0.010930 0.000941 -0.023765 -0.009983 -0.018646 0.006209 -0.005727 0.003667 0.007557 0.003621 -0.008038 
bisnar 0.006438 0.012170 -0.004127 -0.001814 -0.001425 -0.002130 0.005902 0.001232 0.012642 0.001241 0.009506 0.000880 -0.006405 -0.002124 -0.004035 0.008414 -0.002587 0.002735 -0.003841 0.003467 -0.015894 0.001905 0.009340 -0.004657 0.009428 -0.010053 -0.012295 -0.002343 0.010915 -0.013063 -0.004234 0.012445 -0.010202 0.002447 -0.008670 0.004588 -0.005659 0.009529 -0.014328 0.003199 -0.005351 0.003057 -0.010845 0.000053 0.009831 -0.003283 0.000849 0.008632 -0.008102 -0.020425 -0.001048 -0.001355 -0.004173 0.005004 0.013251 -0.004716 0.011105 0.004924 0.008530 -0.008413 -0.000511 0.001222 -0.012991 -0.001184 0.001861 0.012174 -0.000070 0.005437 -0.007958 0.013485 -0.010759 -0.011465 0.005534 -0.000364 -0.003622 0.000018 -0.003833 0.003898 0.001669 -0.008746 0.002566 -0.000503 -0.004205 0.002274 -0.007014 -0.005912 -0.009928 0.016135 0.005759 -0.002307 -0.007018 -0.018164 -0.008292 -0.020897 0.001219 -0.003602 -0.003525 0.002258 -0.004723 -0.003492 
刘俊娥 0.000520 0.004428 0.003469 -0.004745 0.002340 -0.001045 0.015996 0.017891 0.013095 0.004021 -0.000301 -0.010231 -0.003537 -0.006393 -0.007512 0.013119 -0.005626 -0.011112 0.000831 0.009373 -0.018695 -0.000093 -0.004580 -0.001040 0.000990 -0.001789 -0.008020 -0.008715 0.017411 -0.000866 -0.004768 0.002537 -0.000397 -0.002618 -0.006494 0.001759 -0.010078 0.007976 0.000501 0.009493 -0.007737 -0.006925 -0.011120 0.003972 -0.000891 -0.002614 -0.012603 0.011047 -0.003094 -0.021421 -0.000179 0.015149 -0.008525 0.001656 0.006099 -0.002439 -0.005878 0.012961 0.011939 -0.006225 -0.013219 -0.001248 -0.007582 0.004523 -0.005886 0.010042 -0.013420 0.006434 -0.001618 0.013795 -0.007584 -0.016946 -0.006806 -0.011800 0.000183 -0.003317 -0.002908 -0.005589 0.011996 -0.009712 -0.004314 0.002465 -0.005020 -0.000890 -0.011526 -0.014268 -0.010513 0.022182 0.000885 -0.000635 0.013237 -0.010783 -0.012281 -0.008492 -0.004801 -0.000234 -0.010088 0.003897 0.002881 0.006659 
张传声 -0.006455 0.019679 -0.001373 -0.000089 0.004861 0.005016 0.008548 0.002643 0.004148 -0.000535 0.000529 0.001816 0.001064 0.003825 -0.002160 0.008961 0.003813 0.009492 -0.007188 -0.006097 -0.005821 0.000388 0.002731 -0.003306 0.003811 -0.001758 -0.009284 -0.012354 0.009419 -0.013991 -0.005684 0.004126 -0.001161 0.006457 -0.004721 0.011683 -0.003146 -0.003674 -0.008472 0.002607 -0.005140 0.001337 -0.010273 0.007732 0.004979 0.001582 -0.012239 0.012878 -0.010625 -0.014668 0.006660 0.005106 0.003279 0.008822 0.010915 -0.004465 0.006690 0.007476 0.014608 -0.006202 0.001620 0.002284 -0.010651 0.012585 0.009653 -0.002594 0.000098 0.010157 0.001457 0.012049 -0.010532 -0.004813 0.008679 0.001327 0.004943 0.012662 0.004071 0.002889 -0.000549 -0.002142 0.010374 -0.004066 -0.010434 0.007854 -0.011235 -0.009565 -0.004287 0.017696 0.000103 0.005199 -0.003262 -0.012349 -0.009655 -0.008224 -0.004461 0.004954 0.002967 0.001956 -0.003974 0.003613 
韦根 -0.000608 0.013246 0.002202 0.010106 -0.004219 0.003116 -0.002093 0.001000 0.006978 -0.000162 -0.007473 0.009078 0.002522 -0.005036 -0.005323 0.003839 0.012369 0.005100 0.001370 0.005859 -0.005768 -0.002637 0.001328 -0.001781 -0.003535 -0.005341 -0.005138 0.000207 0.010809 -0.012895 0.008625 0.014381 -0.000473 0.000506 0.003405 -0.002225 -0.004497 0.004186 0.008303 0.003695 0.003051 -0.003356 -0.003886 -0.005880 0.011387 0.008746 -0.013947 0.015640 -0.010570 -0.007756 0.000390 0.014133 -0.002449 0.011423 0.007805 0.003207 0.006062 -0.006426 -0.000696 0.010570 0.001724 0.021325 -0.004830 0.001843 0.005683 0.007686 -0.000746 0.015197 -0.001799 0.010596 -0.006494 0.005739 -0.008097 -0.008343 -0.000521 -0.004647 -0.005649 0.002132 -0.000237 0.001845 -0.014257 -0.002087 -0.000843 0.006946 -0.015170 0.004850 -0.005920 0.007840 0.000795 0.003876 0.007947 -0.003618 -0.003886 -0.001328 0.016351 -0.000319 -0.005757 0.001963 -0.009408 -0.012272 
元普旗 -0.001925 0.004271 -0.010897 0.002946 -0.002126 0.011885 -0.003725 0.001398 0.005979 -0.000394 0.005029 -0.001987 0.001018 -0.002158 -0.004506 0.011133 -0.000358 -0.003608 -0.013782 0.011071 -0.011094 0.000192 0.001686 -0.008673 0.002371 -0.016991 -0.002194 -0.008950 0.015500 -0.006699 -0.003823 0.009393 -0.006858 0.013677 -0.001510 0.005349 -0.008912 0.002243 -0.010927 0.008434 -0.013369 -0.010994 0.015735 -0.003940 -0.004832 0.009633 0.000247 0.004287 -0.009563 -0.017360 -0.008429 0.017712 -0.010680 -0.001871 0.006429 0.012682 -0.009844 0.004023 0.004563 -0.003462 -0.005695 0.023063 -0.011634 0.011916 0.000478 0.016028 -0.011252 0.006847 -0.000307 0.012200 -0.006226 0.005583 -0.013160 0.005086 0.003801 0.002252 -0.005983 0.008572 0.009772 -0.004941 -0.014903 -0.000568 0.009170 0.008061 -0.021884 0.002632 -0.002662 0.005880 0.017259 -0.003429 0.005567 0.003319 -0.016327 -0.015944 0.008461 0.007728 -0.012807 0.009944 0.000943 -0.003117 
何操盘 0.002869 0.012570 -0.000743 -0.011985 -0.004012 0.012108 0.003759 0.002937 0.002091 0.008914 0.002495 0.000489 0.003616 0.011973 -0.010941 0.000256 0.009173 0.002507 -0.017761 0.001614 0.000911 0.006551 0.014879 0.007433 0.006280 -0.001929 -0.001546 -0.004597 0.014108 -0.001319 -0.000280 0.018119 -0.011559 0.007460 0.001202 -0.010166 -0.012843 0.002664 -0.012253 -0.007726 -0.000781 -0.007982 -0.000797 -0.004862 0.007481 0.005409 -0.000908 0.021488 -0.008077 -0.022990 -0.004684 0.006836 -0.012728 0.009424 0.011364 -0.008112 0.010170 0.006702 0.009053 0.008062 0.001594 0.009398 -0.006380 -0.002676 -0.004282 0.002533 -0.005056 0.014972 -0.009788 0.007771 0.002157 -0.001651 -0.007725 -0.002514 -0.007203 0.013653 -0.010858 0.003991 0.005104 -0.011200 -0.006933 -0.000344 0.012396 0.024433 -0.010815 -0.002553 -0.009359 0.001857 -0.005703 0.002848 0.002870 -0.006323 -0.003849 -0.005875 0.010651 -0.004269 -0.006828 -0.004914 -0.000794 -0.002772 
张强顿 -0.005024 0.003277 -0.003532 -0.001940 -0.005618 0.012523 -0.002005 -0.005587 0.012423 -0.002508 0.001284 -0.001353 -0.004040 0.003160 -0.006289 0.005296 -0.001049 0.004002 -0.006276 -0.000826 -0.007385 -0.002518 0.008573 -0.000570 0.008273 0.005625 -0.005577 0.002465 0.001932 0.004970 0.008951 0.013468 -0.005058 0.008421 -0.001796 0.003037 -0.010552 0.000474 -0.008496 -0.001056 0.003871 -0.008118 -0.001107 0.000870 0.006901 -0.000722 -0.013914 0.008412 -0.011079 -0.020053 -0.004548 0.015329 -0.004953 0.008035 0.012841 0.000102 -0.002989 0.003674 0.002904 -0.007278 0.000724 0.004612 -0.004746 0.001853 -0.003449 0.008647 0.000435 0.012233 -0.006520 0.010384 -0.005133 -0.007344 -0.005116 0.002964 -0.015613 0.001566 -0.003812 0.000590 0.006294 -0.010478 -0.006441 -0.003740 0.006258 0.010239 -0.007503 0.002004 0.000349 0.015017 0.009015 0.004169 -0.001317 -0.005403 -0.006985 -0.004657 -0.000331 0.009272 -0.004753 -0.006640 0.002565 -0.005660 
ievent -0.004953 0.008267 0.001126 0.000165 -0.007564 0.003419 0.018289 0.013053 0.015294 0.009327 0.011619 -0.005121 0.000722 -0.004891 -0.020395 -0.018421 0.003780 0.004692 0.007340 -0.005185 -0.008123 0.006042 -0.014441 0.009955 0.000357 -0.014242 -0.016063 0.000436 0.005947 -0.009716 0.006924 0.000389 0.001257 0.008806 -0.001336 0.013927 0.006098 0.002020 -0.013737 -0.001286 -0.008942 0.020249 -0.008810 -0.007201 0.009002 0.007845 0.004092 0.001147 -0.002441 -0.009701 -0.000804 -0.003393 0.001693 -0.008670 0.001426 0.000240 0.014956 0.007771 -0.023067 -0.006476 -0.000710 0.002198 -0.015769 0.003970 -0.010255 0.006039 0.009307 0.005673 0.007747 0.013864 0.000708 -0.030832 0.034189 0.007773 -0.026776 -0.006070 0.015378 -0.002314 0.009060 -0.015277 0.000239 0.017648 -0.013167 -0.009100 -0.018804 -0.015974 0.007628 0.014468 0.021066 0.003707 -0.005208 -0.013974 -0.009907 -0.014044 -0.005115 -0.000805 -0.015797 -0.015264 -0.018577 0.002020 
郭都能 -0.004690 0.013581 -0.012241 -0.002943 0.003432 -0.005150 0.001060 0.001037 0.016239 0.003609 0.012283 0.000699 -0.000914 0.001078 -0.002639 0.002786 0.011359 -0.006932 -0.002782 -0.001152 -0.006942 0.010509 0.009838 -0.005998 0.006824 -0.000134 -0.000971 -0.004020 0.007294 -0.026141 -0.000350 0.022166 -0.003299 -0.010034 0.001273 0.014146 -0.009156 0.009298 -0.003669 -0.005743 -0.001433 -0.007765 -0.012396 0.005144 0.013659 0.001216 -0.010713 0.010560 -0.017447 -0.014900 -0.004791 0.008659 -0.023800 0.006769 0.009481 0.006754 -0.001809 0.010847 0.007633 -0.000775 0.006050 0.001121 -0.007461 0.001624 -0.004704 -0.000101 -0.000265 0.007321 -0.009647 0.019448 0.004082 -0.013019 0.002435 0.003465 0.010048 0.008176 -0.011773 -0.002589 -0.000883 -0.012881 -0.007072 -0.002040 -0.010921 0.007812 -0.004576 -0.001328 -0.016537 0.006125 0.004061 0.000748 0.008890 -0.013881 -0.004151 -0.015352 0.015627 0.006172 -0.005084 0.001019 -0.001650 -0.005515 
鱼形石 0.008107 0.004378 0.003185 0.007406 -0.001467 0.003746 0.008272 0.013889 0.016008 0.013978 0.005272 -0.008383 0.000146 -0.003420 -0.006578 0.003808 0.011290 0.000440 -0.005528 0.004298 -0.008370 -0.007030 -0.001975 0.006147 -0.001066 -0.016854 -0.015127 0.003030 0.022380 -0.016855 0.000090 0.000208 0.015429 0.010928 0.006120 0.008029 -0.000893 0.004634 0.005603 -0.001555 -0.000492 -0.003424 -0.001582 0.006165 0.004876 -0.008388 -0.002944 0.010990 -0.006789 -0.016897 0.004632 0.017421 -0.015688 0.009818 0.003301 0.007536 0.008341 0.007199 0.000345 -0.011727 0.010039 0.010095 -0.003744 0.016379 0.007008 0.021892 0.001139 0.001715 -0.001911 0.019715 -0.006452 -0.009082 0.001101 -0.006495 -0.005207 0.005653 -0.008078 0.002340 0.002656 -0.010916 -0.004349 0.005625 -0.018477 0.009306 -0.015251 -0.011004 -0.010932 0.016204 0.017177 0.010272 -0.009851 -0.017586 -0.003175 -0.014364 -0.004691 0.001822 -0.008640 -0.005285 -0.002684 -0.000306 
龙形石 0.008171 0.011312 -0.000933 0.006062 -0.007044 0.009548 0.009635 0.014278 0.017799 0.019138 0.005939 -0.007718 0.000499 -0.002747 -0.013801 0.002248 0.006845 0.002466 -0.002653 0.005822 -0.008973 -0.000849 -0.004093 0.002301 -0.000591 -0.015052 -0.009136 0.002591 0.015939 -0.015363 -0.001964 0.002371 0.013446 0.012601 0.005686 0.015904 -0.001723 0.009695 0.011853 0.003310 -0.005612 -0.001384 -0.005686 0.006105 0.003843 -0.001022 -0.004852 0.012365 -0.011642 -0.012677 0.002413 0.010989 -0.013307 0.008864 0.009040 -0.000093 0.006559 0.011430 -0.002247 -0.003120 0.008895 0.015856 -0.008877 0.008403 0.005202 0.018547 -0.005091 0.000938 -0.002466 0.012447 -0.000848 -0.011902 0.001250 -0.002098 -0.010614 0.005390 0.000471 0.003750 0.007801 -0.008301 0.000397 0.008856 -0.015865 0.011333 -0.013280 -0.010887 -0.013086 0.024681 0.014451 0.009203 -0.001443 -0.017328 -0.010379 -0.017379 -0.001217 0.009877 -0.009390 -0.004667 -0.005009 0.003030 
世界拳击联合会 -0.005204 0.018923 -0.005830 0.005343 0.002459 0.009991 0.008685 0.004673 0.008000 0.006081 -0.000829 -0.000106 0.002378 -0.005180 -0.008749 -0.004533 0.003073 0.000901 -0.001883 0.004205 -0.008257 -0.006284 -0.008194 0.009160 -0.003126 -0.001288 -0.011513 0.001515 0.019971 -0.024853 -0.002804 0.015584 -0.004825 -0.008600 -0.000815 0.003292 -0.014221 0.006180 -0.008518 -0.005533 -0.005066 -0.012583 -0.003961 -0.004300 0.000566 0.013116 -0.002424 0.004105 -0.005425 -0.014510 0.003300 0.017470 -0.008032 -0.001268 0.012461 0.004568 0.009634 0.000095 -0.004603 -0.008905 0.004522 0.012008 -0.004995 0.005525 -0.007079 0.004273 -0.004999 -0.000517 -0.003934 0.005948 -0.005348 -0.003436 0.002096 0.001180 0.002522 0.003293 -0.001220 0.019849 -0.002332 -0.001095 0.004877 -0.002935 0.003313 0.008881 -0.009503 0.009682 -0.008633 0.008154 0.018137 -0.004864 0.006559 -0.015435 -0.015918 -0.018141 0.005477 0.003894 -0.009397 -0.004103 -0.010185 -0.005024 
邹勇平 -0.021903 0.006725 0.006177 -0.002929 -0.019091 0.016527 -0.001514 -0.022432 -0.002340 0.004065 0.002227 -0.007591 0.004708 0.003656 -0.008894 0.021290 0.009470 0.002046 -0.004079 0.010513 -0.033607 -0.003731 0.010385 -0.016387 -0.010032 -0.003437 -0.022459 -0.009342 -0.004095 -0.009805 -0.025434 0.000752 -0.004266 -0.005446 0.010840 0.003504 -0.000982 -0.005305 0.005771 0.000275 -0.005152 -0.001831 0.013557 -0.014420 0.002148 -0.001932 0.016915 -0.006922 -0.005999 0.010851 -0.002522 0.006865 -0.010001 -0.011123 0.010479 0.021835 0.009262 -0.004493 -0.021718 -0.001329 0.022283 0.006549 -0.003376 0.018295 0.007091 0.007039 0.002321 -0.010742 0.008619 -0.008052 -0.005398 0.004448 -0.012336 -0.002358 0.002877 -0.015748 0.005027 0.014835 -0.004558 0.000511 -0.001961 -0.009387 0.007566 0.018693 -0.011313 0.022442 0.000663 -0.001060 0.007645 -0.004816 -0.000289 -0.008935 -0.013999 -0.013739 0.013582 -0.003656 -0.008313 -0.000807 -0.011782 -0.004016 
东卿 -0.001860 0.013889 0.002714 -0.005219 0.005424 0.006262 -0.000212 0.001545 0.012173 0.013708 -0.001311 -0.008261 0.001657 -0.004345 0.003899 -0.009786 0.004365 0.001432 -0.005402 0.006407 -0.007499 -0.001972 0.005066 0.007318 0.017254 0.001284 -0.009087 -0.002421 0.012798 -0.004804 0.000231 0.002517 0.010699 -0.001056 -0.011089 0.005434 0.004046 -0.003256 -0.005052 0.000992 0.000780 -0.002265 -0.004341 -0.009519 0.002709 -0.010705 -0.006741 0.008973 0.000272 -0.007467 -0.004291 0.010760 -0.002985 -0.002003 -0.008299 0.001549 -0.000470 0.004980 0.003976 0.002419 -0.004291 -0.006212 -0.005283 0.001356 0.004567 -0.002420 0.000041 0.009831 0.002318 0.008346 -0.004407 -0.013152 0.009408 0.000751 -0.003160 -0.000980 -0.004017 0.000820 0.011703 -0.006138 0.010329 -0.010013 -0.010605 0.007305 -0.001952 -0.008488 -0.015697 0.009788 -0.004658 0.001986 0.000643 -0.016346 -0.002947 -0.009457 0.001282 -0.006546 0.004757 0.008149 -0.000586 0.001754 
曹子清 0.002947 0.010210 0.001314 -0.003501 -0.001837 -0.001385 0.001079 0.000544 0.008453 -0.002492 0.000134 0.003012 0.003486 0.003836 -0.000035 0.001113 0.004722 -0.004420 0.001084 0.009521 -0.018832 0.007780 0.005088 0.009339 -0.000902 -0.003125 -0.012030 -0.003726 0.011353 -0.007114 -0.005499 0.006770 -0.000787 0.001405 -0.006385 0.001003 -0.009483 -0.001949 0.000696 -0.000505 -0.008623 -0.008386 -0.005696 0.014218 0.000626 -0.001956 -0.008489 0.003609 -0.014036 -0.014221 0.005664 0.016587 -0.011699 0.000138 0.006509 -0.000317 0.009806 0.004980 -0.001696 -0.006496 -0.003635 0.009673 -0.000972 0.004184 -0.003244 0.007065 -0.008777 0.000299 -0.005726 0.001588 0.004046 -0.000392 -0.004348 -0.010197 -0.002135 0.015549 -0.001773 0.006540 0.013262 0.000219 -0.002973 -0.009913 0.009938 0.005642 -0.002841 -0.005957 -0.007624 0.010705 -0.000751 0.000902 0.012667 -0.005353 -0.006721 -0.012416 0.004752 -0.000489 -0.004742 -0.001979 0.001225 -0.008214 
瑞哲 -0.003123 0.006825 -0.009327 0.002320 -0.007609 0.000533 0.003597 -0.007727 -0.002713 0.004942 -0.000564 -0.010830 -0.003372 0.011979 -0.004819 0.008241 -0.002052 -0.002177 -0.012837 0.000453 -0.014656 -0.004744 -0.007646 -0.000312 -0.000110 -0.001097 -0.011213 0.008276 0.002229 -0.001369 -0.002375 0.011363 0.000511 0.002247 0.007179 0.009274 -0.003713 -0.000028 -0.009734 0.012604 0.006658 -0.002022 0.006474 -0.003253 0.008970 -0.005062 -0.009858 0.000667 -0.009103 -0.026571 0.004312 0.000734 -0.001859 0.003127 0.016903 0.024547 0.012096 0.012942 -0.007274 -0.010276 0.008985 0.015440 -0.012603 0.006595 0.014879 0.012079 -0.004923 0.006749 -0.001650 0.018782 -0.003181 -0.003192 0.000043 -0.001755 -0.011287 -0.005716 0.008041 0.004439 0.004897 -0.000264 -0.002866 -0.007576 0.010245 0.013782 -0.019552 0.009834 -0.012061 0.004687 0.006399 0.010969 0.004494 -0.005268 -0.015094 -0.010390 0.013276 -0.005969 -0.001171 -0.006995 -0.022158 -0.010131 
暨锄禾 -0.000231 0.009172 -0.004061 0.007869 0.006016 0.001933 0.005699 0.004254 0.013622 -0.000809 -0.000370 -0.005209 -0.006176 0.004307 -0.007357 0.003233 -0.000661 0.005144 -0.011050 -0.000463 -0.018134 -0.005709 -0.004166 -0.002288 0.003199 -0.008966 0.000905 0.006496 0.013854 -0.011499 -0.000006 0.003541 0.001326 0.003629 -0.005513 0.009739 -0.001377 -0.001699 -0.012026 -0.004692 0.001651 -0.002075 0.004152 0.008208 -0.004820 -0.008390 -0.008157 0.006126 -0.004299 -0.015238 0.006999 0.000612 -0.009612 -0.002767 0.007476 0.004639 0.008591 0.002026 -0.006361 -0.007740 -0.001501 0.016721 -0.006644 0.000601 -0.001879 0.018099 -0.002270 0.009784 -0.004322 0.013008 -0.004098 -0.004746 0.011572 -0.002961 -0.003056 0.005833 0.005767 0.007201 -0.002572 0.006651 -0.002937 0.001733 0.006454 0.006672 -0.017179 0.004152 0.000929 0.014848 0.010105 0.003419 0.017270 -0.000706 -0.015941 -0.008013 -0.001531 0.010051 -0.016228 -0.006642 -0.000427 -0.001366 
库昌天 -0.000947 0.004377 -0.003401 0.002742 -0.000768 0.005890 0.013874 0.002623 0.006783 0.003724 -0.004112 -0.002317 0.000648 -0.003200 -0.004303 0.005951 0.009587 -0.002551 -0.000579 -0.006971 -0.015009 0.004245 0.007189 0.003475 -0.002671 -0.004528 -0.004833 0.001254 0.007765 -0.018961 0.005334 0.010387 0.006059 0.002732 0.001711 0.004419 -0.014675 0.011780 0.003521 -0.002998 -0.002591 -0.001983 -0.002336 -0.002339 0.004973 0.008545 -0.010063 0.004618 -0.002211 -0.012820 0.002817 0.000138 -0.007996 0.001040 0.005780 0.004272 0.005823 0.014763 -0.000516 -0.006789 0.006797 0.010155 -0.008134 0.004986 0.004024 0.006173 -0.008784 0.008758 0.000292 0.019748 -0.000571 -0.000803 0.004575 0.003950 0.004775 0.009157 0.005525 0.000287 -0.000252 -0.007515 -0.001288 -0.007251 -0.008971 0.011785 -0.008943 -0.005781 -0.014374 0.009198 0.006815 0.000376 -0.002592 -0.009550 -0.001682 -0.011644 0.005956 0.004405 -0.006417 -0.003667 -0.012876 -0.010350 
brezenkn 0.003967 0.013627 -0.004814 0.007880 0.002136 -0.005100 0.009610 0.003372 0.013598 0.006023 0.004747 0.003644 -0.000016 0.002043 -0.013258 0.004749 -0.002725 0.005850 -0.016544 0.001383 -0.005548 0.003121 -0.011139 0.003791 -0.006621 -0.001230 -0.005773 -0.006083 0.009710 -0.012925 0.004402 0.009001 -0.000136 0.010292 0.005686 0.002038 0.000092 0.002434 -0.003155 -0.005919 -0.010115 0.004172 -0.005485 0.007832 -0.003888 -0.004845 -0.008765 0.015250 -0.001911 -0.009010 0.005527 0.015095 -0.013149 0.003938 0.010012 0.012831 0.003998 0.000653 0.003504 -0.015024 -0.000809 0.006801 -0.007923 0.007289 -0.008610 0.015926 -0.004331 0.007224 0.001539 0.013961 -0.010078 -0.011744 0.010755 0.001786 -0.013536 0.005212 0.006140 -0.003051 0.001363 -0.012323 -0.003211 0.006230 -0.011767 0.011245 -0.021053 -0.008330 -0.009686 0.016247 0.009746 -0.002991 0.004952 -0.018642 -0.008658 -0.004099 -0.003121 -0.002484 -0.002831 -0.002600 -0.006004 -0.005493 
cristinas -0.004661 0.018695 -0.002356 0.000717 -0.002089 0.005220 0.007610 0.002652 0.011279 0.003519 0.000069 -0.006251 -0.004246 -0.002131 -0.005387 0.002649 0.002933 0.001578 0.003621 -0.003649 -0.006466 -0.004065 -0.003249 0.004991 0.001276 -0.009797 -0.004281 -0.000699 0.012210 -0.012139 0.007894 0.001957 0.009354 -0.005985 0.006444 0.001994 -0.001034 0.001027 -0.003305 -0.002590 -0.008346 -0.004964 -0.005587 -0.001547 -0.001427 -0.002407 -0.001840 -0.001601 -0.006384 -0.010137 0.000571 0.014535 0.007830 -0.002304 0.003520 0.008937 0.005921 0.007113 -0.001829 -0.005371 -0.009686 0.009637 -0.007192 0.014456 -0.000857 0.008935 0.006548 0.001554 0.002463 0.018492 -0.000347 -0.008581 0.010228 -0.009260 -0.004963 -0.008545 0.010807 -0.000666 0.009090 -0.002593 -0.006788 0.005127 -0.002437 -0.003452 -0.008465 -0.003212 -0.002842 0.010746 0.018511 0.005146 0.003897 -0.010685 -0.005996 -0.013886 0.008098 0.007236 -0.004264 -0.002047 -0.021618 -0.004268 
李肆 -0.000611 0.015849 0.005352 0.001352 -0.000035 0.005466 0.002456 0.004020 0.004508 0.000108 0.008157 -0.000439 0.000094 -0.000447 -0.001624 -0.003419 0.007289 0.008509 0.002015 0.001055 -0.016240 0.003752 0.003952 -0.001256 0.002997 -0.001315 -0.010575 -0.007218 0.004861 -0.004809 0.000883 0.004250 -0.002446 0.003755 -0.013300 0.000324 -0.004867 0.005210 -0.010593 -0.000087 -0.005889 0.003686 -0.002563 0.001835 0.010908 0.003883 -0.000386 0.006445 -0.004127 -0.010323 -0.006409 -0.005275 -0.008397 0.002929 0.000464 -0.000114 -0.002357 0.007579 0.002648 -0.006483 -0.004736 0.003504 -0.006604 0.000582 -0.000148 0.001722 -0.000651 0.011191 -0.001039 0.008060 -0.009679 -0.005886 -0.005291 0.004242 -0.003130 0.009786 -0.006358 -0.003440 0.004707 -0.008668 0.006000 -0.001864 0.000204 0.000943 -0.009724 -0.007830 -0.009854 0.008149 0.006724 -0.003290 0.000999 -0.007060 -0.004657 -0.010331 -0.005114 0.006070 -0.003115 0.006638 -0.002879 0.005381 
李记坛 0.004410 0.004890 0.000111 0.002757 0.008068 -0.010588 0.008740 -0.002759 0.007420 0.007045 -0.000673 0.004724 -0.004100 0.008391 0.007218 0.003206 0.004143 0.014435 -0.005953 -0.000193 -0.006132 0.007479 -0.011660 0.003771 -0.006174 -0.005994 -0.004833 0.000533 0.001492 0.005974 -0.008481 -0.003236 0.011043 0.014867 -0.004302 0.003763 -0.000139 0.005798 -0.005665 -0.000380 -0.008017 0.008294 -0.003573 0.001783 -0.007685 -0.005240 -0.007575 0.011865 -0.001266 0.004945 0.003331 0.008868 -0.005317 0.002544 0.006626 0.008946 -0.000235 -0.003568 0.003182 -0.004210 -0.004031 0.007148 -0.014986 0.008890 -0.004573 0.003784 -0.000394 0.006863 0.007863 0.009462 0.001522 -0.007720 0.002012 0.006606 0.003058 -0.000336 0.004208 -0.011423 0.000078 -0.006178 0.000152 0.005114 -0.007216 0.000316 -0.002055 -0.002837 -0.011925 0.017947 0.013050 0.003055 -0.012845 -0.008232 -0.003244 0.004959 -0.004635 -0.006569 0.020367 -0.002520 0.007687 0.008984 
田亚均 -0.002202 0.003402 -0.003691 -0.002807 0.005545 -0.005111 0.012907 0.013622 0.010565 0.001029 -0.001418 -0.008931 0.006199 -0.000909 0.000366 0.001380 0.009485 0.000260 0.002503 0.010618 -0.020478 -0.000876 0.000446 0.010765 0.003581 -0.001911 -0.015887 0.001252 0.010122 -0.017118 -0.006715 0.006308 0.001208 0.003444 -0.012133 0.005594 -0.006180 0.008020 -0.001269 0.002745 -0.000309 -0.013677 -0.005284 -0.000277 0.005996 0.008204 -0.001556 0.003116 -0.008838 -0.018959 0.002661 0.009847 -0.004657 -0.003734 0.005416 0.001592 0.006621 -0.001376 0.009470 -0.004877 -0.007197 0.007372 -0.019322 -0.005116 -0.007542 0.006894 -0.009364 0.012184 -0.002373 0.010466 -0.007333 0.003409 -0.000256 -0.006375 0.001272 0.000185 -0.001513 0.007245 0.002402 -0.006784 -0.004923 0.005440 -0.000331 0.003984 -0.003666 -0.010944 -0.006478 0.011457 0.018960 0.000254 0.013042 -0.003305 -0.007399 -0.008728 0.000330 -0.001391 -0.008832 -0.000423 -0.004650 -0.004784 
socialklimbing -0.000546 0.008419 -0.008926 0.008244 -0.009709 0.000727 -0.001943 0.008573 -0.001845 0.003228 0.001811 -0.004029 0.004701 -0.001961 -0.004489 0.001426 0.002284 -0.003574 -0.009800 0.002299 -0.003608 0.004546 0.002612 0.000052 0.001679 -0.003074 0.005176 0.005854 0.002451 -0.006912 0.003586 0.013855 0.002913 0.001807 -0.006537 0.006430 -0.008094 0.005742 -0.011771 -0.004867 -0.005746 -0.001169 0.003152 0.002779 0.003465 -0.001032 -0.009438 0.000834 -0.003989 -0.010034 0.006202 0.004396 -0.002648 -0.002029 0.007246 -0.005906 0.001053 -0.000574 0.002020 -0.000496 0.007984 0.012237 -0.005949 0.001519 0.003349 0.001505 -0.002247 0.012519 0.000224 0.000869 -0.006812 -0.002040 0.001575 0.004337 -0.005411 0.004178 -0.001205 0.008136 0.006216 -0.006512 -0.008332 0.007743 0.004983 0.006272 -0.008667 -0.001235 -0.000829 0.006757 0.005883 -0.001130 0.010910 0.004607 -0.001005 -0.010891 0.000307 -0.001737 -0.004275 -0.008581 -0.004863 -0.012384 
澳门特别行政区检察院 -0.004237 0.005974 0.002749 -0.000319 0.004221 0.011827 0.013491 -0.010131 0.017581 -0.005198 -0.008222 0.002021 0.013842 -0.003792 -0.001963 0.001116 0.007800 -0.003147 0.005195 0.005340 -0.020817 0.007763 0.001503 0.002305 0.008512 0.000237 -0.008082 0.008565 0.005107 -0.013285 -0.010165 0.007349 0.008723 -0.002416 -0.008335 0.002492 -0.003228 -0.005224 0.004433 0.005658 -0.004588 -0.007488 -0.007440 0.000176 0.009249 -0.002830 0.000423 0.001731 -0.013528 0.000109 0.008233 0.017535 -0.011435 0.000908 0.010513 0.009785 0.006615 -0.001666 -0.005604 -0.009337 0.003129 0.010122 -0.008052 0.012788 0.007824 0.002758 0.000079 0.000949 -0.002063 -0.002878 0.007657 0.000728 -0.003129 -0.003297 0.000421 0.007340 0.000260 0.004642 0.005416 -0.002478 -0.002789 -0.005621 -0.011480 0.015496 -0.004506 0.000102 -0.006071 0.003992 0.007691 -0.001675 0.004910 -0.001629 -0.015621 -0.005404 0.005293 -0.001615 -0.002212 0.008888 -0.008534 -0.011623 
杰斯邦 -0.002215 0.012059 -0.005411 0.001140 0.005501 0.003365 0.010370 -0.000786 0.009833 -0.005686 0.003292 0.000729 0.002845 -0.000516 0.005651 -0.001408 0.002039 0.007328 -0.002278 -0.003113 0.003238 -0.005581 -0.004287 -0.003312 -0.002474 0.004340 0.004088 -0.000411 0.006436 -0.014646 0.007717 0.012027 -0.005329 0.006680 0.010234 0.008900 -0.009337 0.002413 -0.003489 0.005695 -0.000891 -0.001735 0.005464 -0.005853 -0.001275 0.004108 -0.001826 0.004246 -0.001745 -0.004550 -0.001350 0.008337 -0.007863 0.010949 0.004059 0.007366 0.013598 -0.004661 0.004061 0.002422 -0.000729 0.002844 -0.008207 0.011890 0.004094 0.013199 0.002243 0.003910 0.003075 0.003330 -0.006043 -0.006170 0.004641 -0.004896 -0.004816 0.001006 0.006754 0.006355 0.004371 -0.006882 0.002881 -0.006096 0.006871 -0.007559 -0.003053 0.004520 -0.003970 0.000989 0.009525 -0.008405 -0.003461 0.004343 -0.000359 -0.015761 0.015975 -0.000920 -0.004662 -0.007091 -0.001351 -0.005953 
达洋猫 -0.001631 0.007121 0.003676 -0.007896 -0.001822 0.002441 0.005309 0.003351 0.005297 -0.000049 -0.001668 -0.003504 -0.006879 0.006562 0.001655 0.000461 0.000614 0.006840 0.001250 0.004760 -0.003189 -0.000179 -0.001489 0.007472 0.010897 -0.002389 -0.005649 -0.001893 0.012514 -0.008952 -0.003816 0.007647 -0.003930 0.003969 -0.000890 0.001523 -0.003205 -0.001567 -0.010288 0.001801 0.000514 0.005908 -0.007618 0.002373 0.007535 0.004511 -0.006016 0.003229 -0.006220 -0.013455 -0.002984 -0.002812 -0.006970 0.000668 0.001314 -0.002913 0.000762 -0.002011 0.004198 0.000159 0.001036 0.004768 -0.001760 0.004005 0.002386 0.000073 0.004497 0.005340 -0.003154 0.004479 -0.002160 -0.002954 -0.001072 0.003927 -0.003701 0.008005 -0.000530 0.002408 0.007704 -0.010282 0.005794 0.002760 -0.000685 -0.000735 -0.002737 -0.004543 -0.000801 0.013605 0.004958 0.005418 -0.002535 -0.002699 -0.008512 -0.003598 -0.000726 0.001685 -0.001802 0.004284 0.000062 0.002900 
中麻黄 0.000415 -0.001590 -0.001938 0.002263 -0.003596 -0.004210 0.009349 0.006379 0.003474 -0.002418 0.006261 0.000309 0.004206 0.003971 0.002215 0.000274 0.000737 0.000738 -0.002348 -0.002067 -0.012001 0.004668 -0.007386 0.001367 -0.003955 0.000201 -0.012911 0.004802 0.001615 -0.001743 -0.004059 0.010037 0.006327 0.002722 -0.007209 0.003552 0.001908 0.004853 -0.000007 -0.003855 -0.005597 -0.000298 -0.000471 -0.005252 0.003659 -0.002948 -0.012682 0.013971 -0.008896 -0.009744 0.007633 0.010411 -0.004519 0.007473 0.001401 0.002830 0.008816 0.004924 0.008887 -0.002817 0.003567 0.014322 -0.006069 0.004944 0.003573 0.007091 0.000978 0.004541 0.003242 0.010923 -0.003688 -0.009166 0.006845 -0.000435 -0.003179 0.008712 0.003850 -0.005523 0.001977 -0.007655 -0.002682 0.002427 -0.002749 0.002443 -0.008032 -0.000137 -0.011337 0.010025 0.003298 0.004292 -0.002829 -0.003819 0.001215 -0.013579 0.005094 -0.004298 0.008131 -0.002724 -0.003966 0.003294 
余丽琴 -0.003988 0.001986 0.008988 -0.004459 -0.008491 0.004645 0.009746 0.006643 0.006434 0.010935 0.005039 -0.004929 0.002991 -0.004484 -0.002837 0.001929 -0.000730 0.001349 -0.009992 0.003072 -0.013496 0.006961 0.003550 -0.003371 0.000320 -0.009090 -0.003022 -0.001918 0.006431 -0.006114 -0.001858 0.001467 0.005743 -0.006319 -0.006320 0.001890 -0.001971 0.008528 -0.001241 -0.006754 -0.006042 -0.008169 -0.000188 0.008170 0.004631 -0.002677 -0.002253 0.000257 -0.002243 -0.010097 -0.005219 0.013806 -0.009945 -0.001351 -0.001263 0.001303 0.005109 0.002836 0.010867 -0.005671 0.000027 0.001402 -0.008889 -0.000282 0.001484 0.004324 -0.000278 0.006545 -0.006558 0.011862 -0.005970 0.000145 0.000155 -0.000281 -0.006585 0.001319 0.002717 0.001888 0.003514 -0.007770 0.000939 -0.001062 -0.001939 -0.003780 -0.011483 -0.009556 0.000980 0.003537 0.012191 -0.004767 0.008465 -0.004855 -0.009165 -0.003050 0.006369 0.005436 -0.007121 -0.003405 0.005819 0.000168 
墨纪雅 0.004598 0.006338 0.000791 -0.010456 -0.002192 0.003836 0.013113 0.005923 0.002128 -0.000244 -0.000468 -0.007703 -0.001016 -0.004493 -0.000462 0.005643 0.006455 0.006306 0.003426 -0.001619 -0.004774 -0.001764 0.004946 -0.009096 0.003698 -0.000017 -0.001251 -0.002356 0.004592 -0.004590 0.000694 0.006377 -0.003004 -0.003837 -0.001644 0.001172 -0.004915 0.003356 -0.005768 0.002420 0.001232 -0.001845 -0.010498 0.002316 0.009256 -0.003120 -0.003317 0.006377 -0.000830 -0.008007 -0.002696 -0.003646 -0.015452 -0.001485 0.000960 0.000782 0.001099 0.008685 0.006221 -0.009814 -0.000126 -0.000425 -0.000613 0.006656 0.007679 -0.001663 -0.001831 0.002004 -0.006335 0.001713 -0.002514 -0.003635 0.001506 -0.003135 -0.002886 -0.002275 -0.005833 -0.002496 0.004217 -0.001539 -0.001415 0.000141 -0.014142 0.000300 -0.001809 -0.007533 -0.004001 0.010824 -0.001266 0.006369 0.000606 -0.008551 -0.004711 -0.005209 -0.000367 -0.002425 0.004136 0.005834 -0.001535 0.002374 
绮燕 -0.000692 0.004529 0.003882 -0.002567 -0.003055 0.010618 0.009809 0.007512 0.001764 0.007065 -0.007851 -0.005931 -0.000391 0.006952 -0.002917 0.004707 0.003959 0.003253 -0.004975 0.002765 -0.013966 -0.002270 -0.001211 -0.000613 0.001322 -0.004737 -0.005532 -0.002810 0.005904 -0.007854 -0.002625 0.004151 0.005260 0.000382 -0.001337 0.006120 -0.007619 0.006150 0.001726 0.002745 -0.003633 -0.002897 -0.005562 0.003794 0.003865 -0.000452 -0.004999 0.008639 -0.007128 -0.012026 -0.000156 0.005432 -0.007387 0.000735 0.007303 0.005008 -0.002696 0.003242 0.008334 0.001134 -0.008784 -0.002372 -0.008044 0.003418 0.003726 0.007013 -0.004189 0.007884 -0.002004 0.004188 -0.004472 -0.007418 0.001374 0.004900 -0.001984 0.001989 0.001463 0.004165 0.001787 -0.010671 0.001970 0.001760 -0.006498 0.006356 -0.007312 -0.006360 -0.010258 0.009762 0.001490 0.004778 -0.002281 -0.014781 -0.008544 -0.013145 -0.002427 -0.000242 -0.003413 -0.002351 -0.002972 0.002644 
铁元湾 0.000095 0.003368 0.001447 0.008097 -0.005646 0.007438 0.002377 0.006554 -0.001432 0.002179 0.000807 -0.009845 -0.001441 0.009537 -0.007098 -0.002049 0.005396 -0.001238 -0.001762 0.001260 -0.008474 0.000195 -0.001223 0.005160 -0.008352 -0.003861 -0.006348 0.002754 0.000412 -0.008032 -0.009439 0.008862 -0.002403 0.001909 0.005433 0.015485 -0.005579 -0.001464 -0.009610 -0.000604 -0.008938 0.000621 0.000708 0.005223 -0.010575 -0.000928 -0.010837 0.005788 -0.002546 -0.008153 0.003488 0.002298 -0.002374 0.001589 0.008723 0.012758 0.006190 0.007455 0.005807 -0.000007 0.004790 0.009112 -0.014008 0.010323 0.002374 0.019589 0.002183 0.000252 -0.000938 0.014389 -0.002976 -0.004130 0.004563 0.000400 -0.009263 -0.003365 0.003146 -0.001504 -0.006042 -0.005921 -0.001397 -0.000030 0.006901 0.006477 -0.019546 -0.008127 -0.004911 0.007646 0.008550 0.005852 0.004575 -0.003996 -0.008623 -0.009021 0.002567 0.003576 -0.011345 -0.004136 -0.003293 -0.008877 
袁永超 0.000482 -0.006001 0.004494 0.011330 -0.000101 0.002682 0.002503 0.001464 0.004364 -0.000577 -0.007961 0.000182 -0.001261 -0.008699 0.006224 0.006839 0.002980 0.000022 -0.004162 0.010870 -0.010713 0.000271 0.006626 -0.002223 0.000568 -0.006230 -0.000221 0.007294 -0.000456 -0.009545 -0.009276 0.007101 0.001817 0.002076 0.002826 0.015744 0.000727 0.004360 -0.010027 0.004374 -0.013336 -0.003456 0.012574 -0.009620 -0.004591 0.015928 0.001074 -0.003354 -0.005806 -0.011284 0.002295 0.018152 0.003130 -0.004233 0.008193 0.007320 -0.002516 0.014266 0.007706 -0.007925 -0.002595 0.007614 -0.006197 -0.000591 -0.000433 0.005771 -0.007928 0.004464 0.002346 0.011594 0.010705 0.012398 -0.002904 -0.000258 0.004806 0.005628 -0.009813 0.007145 0.002752 0.000603 0.002687 0.002710 -0.002536 0.000882 -0.008129 -0.004728 -0.006187 -0.000273 0.009565 0.009225 0.013920 -0.004179 -0.014933 0.003441 0.008132 0.000899 -0.010875 0.000889 -0.009800 -0.007024 
金罗路 -0.000154 0.007709 0.005047 -0.003207 -0.001476 0.005849 0.016250 0.006947 0.013354 0.002264 -0.008654 -0.014433 0.000382 -0.001447 0.000705 0.009771 0.001362 -0.002603 -0.000970 0.003414 -0.010194 -0.004247 0.007637 0.012588 -0.000578 -0.003467 -0.007323 -0.004309 0.002352 -0.013212 -0.004616 0.004444 0.011672 -0.002608 0.007568 0.011789 -0.016162 0.000498 -0.002729 -0.002891 -0.008160 -0.005866 0.004619 0.006364 -0.004655 0.002707 -0.004817 -0.000732 -0.007054 -0.012214 0.007070 0.016368 -0.010639 0.001104 0.007727 0.009679 0.011861 0.002750 0.003150 -0.004000 -0.001930 0.009514 -0.010178 0.011144 0.002829 0.009451 -0.003950 0.003992 0.000909 0.012678 0.002685 -0.004645 -0.004581 -0.009793 -0.008107 -0.006456 -0.005947 0.009115 0.005463 -0.003168 -0.008501 0.002929 -0.006681 -0.006018 -0.022790 -0.005207 -0.003100 0.020653 0.005858 0.001508 0.012890 -0.005394 -0.008972 0.000413 0.006766 -0.004543 -0.009841 0.008238 -0.008187 -0.008621 
观量 -0.003439 0.009890 0.005447 0.000939 0.000223 -0.001674 -0.003096 0.001478 0.002583 0.002150 -0.000600 0.008272 -0.004002 0.003191 0.000651 -0.001756 -0.000456 0.002295 -0.000118 0.002909 0.000307 0.000357 -0.000903 -0.003831 -0.000034 -0.000299 -0.003467 0.006109 0.005248 -0.001678 0.012755 0.007662 0.001221 0.001477 0.001475 -0.001743 0.002266 0.003001 -0.003955 0.001392 0.006248 -0.002936 0.006700 -0.003721 0.004576 0.006553 -0.011953 0.006850 -0.002368 -0.009170 0.003939 0.009284 -0.005599 -0.000313 0.006101 0.005217 0.002731 -0.002681 0.004730 0.000891 0.007313 0.012903 0.000825 0.004208 0.002297 0.005839 -0.001349 0.007930 -0.003546 0.006652 -0.005415 0.000231 -0.004055 -0.000899 -0.003212 0.001490 -0.005592 0.003002 -0.001250 0.004036 -0.006812 -0.003739 0.004365 0.002836 -0.006546 0.004037 -0.002575 0.006877 0.001207 0.003651 -0.007338 -0.001786 -0.002956 -0.011377 0.010091 0.003808 -0.007109 -0.002921 -0.010242 -0.002833 
方建勋 0.000223 0.009622 0.004734 0.014722 0.007532 0.010258 0.013351 0.012757 0.004385 0.008918 0.004536 -0.010410 0.007376 0.005709 -0.000998 -0.004616 0.007625 0.006530 0.009995 0.001732 -0.017800 -0.007351 0.001697 0.012137 -0.006993 -0.006037 -0.013986 -0.000855 0.007187 -0.015488 -0.002794 0.010787 0.003544 0.006545 0.000346 0.005251 -0.008321 -0.002449 0.000461 0.003651 -0.001707 -0.005563 0.001015 0.000357 0.011056 0.005348 -0.001066 0.002801 -0.018245 -0.018625 0.004123 0.016235 -0.006090 0.004348 0.016309 0.003317 0.013933 -0.001202 0.000669 -0.007586 -0.000676 0.010907 -0.007308 0.006500 -0.006623 -0.000034 0.002026 0.003032 -0.003056 0.006605 0.003840 -0.004703 0.006556 -0.003101 -0.000125 0.004493 0.003375 0.007661 0.004377 -0.004390 -0.003267 -0.001709 -0.009055 -0.002015 -0.001538 0.002513 -0.002611 0.019582 0.018218 0.002572 0.000956 -0.008898 -0.016456 -0.011897 -0.010431 -0.001571 -0.003460 -0.005011 -0.007535 -0.001797 
曾超鹏 0.000725 0.005011 0.003319 -0.002838 -0.003229 0.004440 -0.002588 -0.005205 0.007172 0.003723 0.006557 -0.008123 -0.000062 -0.003357 0.007290 0.001828 -0.000591 -0.009422 0.005924 0.000877 -0.001992 0.005237 0.004672 0.003950 -0.001865 -0.007055 -0.009580 0.002311 -0.005572 -0.008540 -0.012576 -0.001560 -0.004283 -0.002443 0.001329 -0.003682 0.005014 -0.002552 0.009592 0.001874 0.004120 -0.006751 -0.002783 -0.001669 0.001356 -0.000768 0.007333 -0.009725 -0.005153 0.006575 -0.002966 0.012149 -0.006910 -0.006689 0.006443 0.002393 0.003653 0.004899 -0.008085 -0.004167 0.004649 -0.005415 0.003523 0.006222 -0.002718 -0.002314 0.001684 -0.000288 0.000951 0.000366 -0.001635 -0.006223 0.004248 0.000107 -0.001223 -0.002018 -0.002315 0.009926 -0.001554 0.003181 -0.012188 -0.005149 -0.003902 0.002891 -0.004967 -0.002098 0.002190 -0.000072 0.002972 -0.006710 -0.000967 0.002401 -0.003852 0.000804 -0.000889 0.000536 -0.000656 -0.003471 0.006410 -0.006841 
史旭 -0.002324 -0.000364 -0.000793 0.007614 0.003478 -0.003613 0.007127 0.012195 0.010425 0.001863 0.002141 -0.002067 0.001897 -0.003895 -0.002991 0.005630 0.008585 0.002089 -0.008813 -0.005285 -0.009360 0.006880 0.001215 0.000674 0.007064 -0.000494 0.000704 -0.002862 0.009458 -0.008351 0.007226 0.007510 0.002633 0.001424 -0.007707 0.002968 -0.006117 -0.001920 -0.007839 0.000556 0.004062 -0.004332 -0.006715 0.004331 0.007897 0.004230 0.000987 0.010848 -0.010472 -0.013071 -0.000356 0.006315 -0.010213 0.004297 0.012339 -0.007661 0.012286 -0.003501 0.000398 -0.000348 0.002862 0.009667 -0.006633 0.004555 -0.000174 0.007323 -0.005060 0.005952 0.000897 0.006466 0.002574 -0.004002 0.002447 -0.007251 -0.001374 0.005845 -0.005067 0.004951 0.002581 -0.004667 -0.005437 -0.004312 0.001341 0.007733 -0.005833 -0.006383 -0.008039 0.008390 0.006318 0.002984 0.003766 -0.002293 -0.005068 -0.006171 -0.002089 0.004084 -0.008605 0.003319 0.003638 -0.005913 
伊劳拉 0.001103 0.001877 0.005178 -0.003095 0.001814 0.000390 0.007734 -0.001460 0.004998 0.008117 0.005103 -0.003672 -0.001343 0.000360 0.000652 -0.001814 0.004561 0.002045 0.001837 0.001448 -0.008452 -0.001083 0.001210 0.003577 -0.002595 -0.003402 0.000862 -0.004674 -0.000867 -0.004611 -0.001938 0.005659 -0.002126 0.007513 0.004192 0.002055 -0.000278 -0.003241 -0.005849 0.003592 0.005781 0.005464 -0.000212 0.002775 0.001880 -0.002156 -0.003571 0.002330 -0.002923 -0.004632 -0.002023 0.006755 0.000194 -0.003284 -0.000438 0.002093 0.007372 0.003569 -0.003234 0.001025 -0.007000 -0.001021 -0.006026 0.001484 0.002426 0.005400 -0.002200 -0.002041 0.005021 0.001484 -0.005479 -0.005636 0.001870 -0.011108 0.002583 -0.002115 -0.001444 0.003879 0.005437 -0.006403 0.002305 0.010765 0.000428 0.003626 -0.006925 -0.008682 -0.005921 0.007456 0.003849 0.004577 0.001586 -0.007389 -0.000543 -0.007858 0.002573 -0.000291 -0.001334 -0.001381 -0.005153 0.000212 
刘世昭 0.003969 0.003246 -0.004108 -0.002284 0.001323 0.002638 0.005715 0.007953 0.003111 -0.000024 0.001150 -0.001866 -0.000949 0.001250 -0.001666 0.002663 -0.000432 0.001084 -0.004088 0.002362 -0.008316 -0.000569 -0.000485 0.007503 0.005163 -0.000974 -0.004079 0.004001 0.008209 -0.009460 0.001922 0.006608 0.004422 -0.001062 -0.004149 0.010803 0.002319 0.004966 0.005224 0.003412 0.002282 -0.002448 -0.006559 -0.001500 -0.002358 0.000167 -0.000774 0.000040 -0.004101 -0.004671 -0.000806 0.004444 0.001052 0.004465 0.006543 -0.002680 -0.000412 0.005808 -0.001484 0.000106 -0.005126 -0.000642 -0.002967 0.003044 -0.004003 0.001349 -0.005613 0.002402 -0.000367 -0.002958 -0.004687 -0.001660 0.004056 -0.003440 -0.000152 0.002829 -0.002073 -0.001201 0.004239 -0.006366 -0.001023 0.002351 0.000195 -0.002804 0.003608 0.002150 -0.010113 0.008565 0.010284 -0.000994 0.000313 -0.000734 0.001132 0.000734 0.000106 -0.004221 0.004038 -0.000238 0.000607 0.003547 
secondlife -0.005046 -0.002288 -0.008160 0.005689 0.004475 0.004592 0.000592 0.004671 0.007578 0.001140 0.007012 0.005221 0.000304 -0.000997 -0.009674 0.002416 0.004549 -0.007388 -0.002493 0.002578 -0.004284 -0.003288 -0.001513 0.002540 -0.003941 -0.011351 -0.008332 -0.002018 0.005922 -0.005516 0.004286 0.014390 0.003269 0.006740 0.000612 0.010095 0.001228 0.003427 -0.007014 -0.000796 -0.007742 -0.005210 0.005293 0.008937 0.002740 0.007570 0.002570 0.007944 -0.006347 -0.002472 0.010393 0.004127 -0.003011 0.005261 0.007729 0.002836 0.005700 0.007397 -0.011344 0.001370 0.005642 0.006954 -0.000816 -0.003802 -0.001405 0.017173 -0.009037 0.008260 0.005340 0.010403 -0.008760 -0.004231 0.014755 0.003210 -0.015617 -0.000941 0.009381 0.002283 0.012181 -0.006826 -0.000320 0.006165 -0.004776 -0.000801 -0.014469 -0.002497 0.006867 0.003875 0.011924 -0.007647 0.007812 -0.004431 0.000740 -0.006535 -0.002058 0.005738 -0.012449 -0.006183 -0.008185 -0.002815 
欧诺重 -0.001248 0.009534 -0.000600 0.001571 0.002712 0.002533 0.005086 0.004393 0.006989 0.005203 0.001420 0.004370 -0.003178 0.002698 -0.004978 -0.001398 0.002443 0.004563 0.001909 0.003256 -0.003162 -0.007468 0.004554 -0.006314 0.003483 -0.001766 0.000601 0.001397 0.001802 -0.012241 0.003310 0.009413 0.005791 0.001940 0.000000 0.000941 -0.000162 0.001257 0.004937 -0.002713 -0.008147 -0.001863 0.002796 -0.006426 0.001163 0.002279 -0.007024 0.001848 -0.006751 -0.006042 0.000294 -0.001111 -0.005431 0.003185 -0.001238 0.006612 0.003740 0.003320 0.006488 -0.001191 0.002429 0.001699 -0.010023 0.012007 0.003405 0.004344 0.006050 -0.002028 -0.002666 0.001376 -0.001277 0.000256 0.005433 -0.005501 -0.001114 -0.002605 -0.001238 -0.002865 -0.005566 -0.002468 0.003351 -0.007572 -0.001468 0.001672 -0.009395 -0.006127 0.003186 0.003725 0.003576 0.001829 0.000338 -0.002951 0.002550 0.000704 0.005559 -0.003121 -0.000136 -0.001600 -0.007593 -0.004945 
斯巴根 0.004739 0.007588 -0.001823 0.000215 -0.000800 -0.003322 0.007765 0.001733 -0.004363 0.005455 -0.003443 -0.003106 0.002997 -0.001735 -0.001327 0.001639 0.002820 0.005078 0.001057 -0.002940 -0.011673 0.000116 -0.000497 0.000338 -0.005015 -0.004677 -0.000639 -0.001958 0.001785 -0.008473 -0.004422 0.001493 -0.001016 0.003915 -0.000983 0.002689 0.006510 -0.004733 -0.004379 -0.006370 0.002556 0.001587 -0.006718 0.002195 0.006529 -0.002167 0.006176 0.004696 -0.005563 -0.003083 -0.001724 -0.002169 -0.003751 0.007299 -0.000813 -0.001115 0.001630 -0.001556 0.004826 0.000711 -0.000881 0.006329 -0.000377 0.005659 0.001215 0.007578 0.005498 0.005619 0.001375 0.004253 0.001238 0.002087 0.004613 -0.006343 -0.008919 0.005690 0.005275 -0.003194 0.006787 -0.003048 -0.006372 -0.005125 -0.007477 -0.006137 -0.002546 -0.004862 -0.003109 0.014874 0.003730 -0.005017 0.001317 -0.008031 -0.007416 -0.007300 -0.001895 0.003367 -0.002636 0.007582 -0.010577 -0.000673 
白崇人 -0.002379 0.003757 -0.001092 0.006523 0.002405 0.002633 0.000476 0.005154 0.002181 -0.002080 0.002757 0.000997 -0.000702 -0.005479 0.000801 -0.003010 0.005329 -0.001533 -0.003890 -0.001452 -0.003821 0.002368 0.002862 0.002471 0.001576 0.002352 -0.009518 -0.003207 0.002182 -0.004846 -0.001306 0.002844 0.002850 0.003176 0.002572 0.006939 0.004972 -0.003224 -0.000323 -0.002017 0.003913 -0.003040 -0.004310 -0.001699 0.000585 0.003758 0.001926 -0.004439 -0.002065 -0.009569 0.001203 -0.003171 -0.006914 -0.004977 0.006209 -0.002930 0.002114 0.004437 -0.006247 -0.001140 -0.001715 0.002613 0.002480 -0.000743 -0.003634 0.001672 0.002519 0.002821 -0.000387 -0.000234 -0.001101 -0.002845 0.000300 -0.002689 -0.008203 -0.006542 -0.000312 -0.003999 -0.005410 -0.008875 -0.000754 -0.001160 -0.007899 0.006018 0.004814 -0.001698 -0.006880 0.006730 0.003808 -0.000137 -0.000139 -0.008953 0.000833 -0.009028 -0.003563 0.001825 -0.002171 0.002798 -0.005901 -0.002052 
石一宁 -0.001154 0.003729 0.003675 0.002891 0.004305 0.006231 0.003528 0.005929 -0.002924 0.002765 0.000788 0.008709 0.011911 0.001830 0.001831 -0.000519 0.002336 0.011471 0.004936 0.007192 -0.006606 -0.005127 0.001800 0.001740 0.000770 -0.004599 -0.011307 -0.000143 0.005886 -0.007369 -0.004603 -0.002884 0.007559 0.002410 0.005275 -0.005779 0.000333 -0.012627 -0.000008 0.009469 0.005598 -0.002998 0.002151 -0.005650 0.005468 0.004119 0.002448 0.002753 -0.011344 -0.009436 0.001970 -0.005275 -0.000284 0.005855 0.008510 0.003233 0.005237 0.001079 -0.003603 0.002871 -0.005308 0.001069 0.003518 -0.000045 -0.009781 -0.002115 -0.002726 -0.000388 0.002052 -0.005314 0.002138 -0.000382 0.008162 -0.007087 0.005374 0.003381 0.006038 0.006264 -0.006492 0.002795 -0.002996 -0.001992 0.000567 -0.004923 0.006383 0.001240 -0.006799 0.009180 -0.004644 -0.010671 0.002848 0.000044 -0.001843 -0.002461 -0.002179 0.004575 -0.008733 -0.000873 0.003355 0.003927 
小仁仁 0.002788 0.004232 -0.000426 -0.004310 -0.000609 0.000812 -0.001911 0.004434 0.006746 -0.000273 0.001986 -0.002826 -0.004617 0.002269 -0.003938 0.004606 -0.001214 0.007007 -0.007876 -0.005511 -0.012523 -0.002608 -0.004293 -0.002625 0.000140 -0.006509 -0.001057 -0.004351 0.002810 -0.006409 0.003716 0.003402 -0.002460 0.000250 0.000509 0.004652 -0.009595 0.006422 -0.002698 -0.003647 -0.006326 0.009305 -0.000819 -0.000835 0.004011 -0.002267 0.001485 0.014054 -0.007555 -0.004277 -0.005906 -0.002018 -0.013262 0.001534 0.007596 -0.000230 0.005640 0.003217 0.006558 -0.001555 -0.004183 -0.002880 -0.006685 0.002984 -0.001829 0.003512 0.001903 0.004416 -0.005747 0.008168 -0.000822 -0.003491 0.002006 -0.002546 -0.001966 0.004379 -0.007882 -0.002129 0.005508 -0.010628 0.004975 -0.000392 -0.005595 0.006729 -0.004345 0.000575 -0.003058 0.013840 -0.005108 0.005911 0.000196 -0.005031 -0.007132 -0.004841 -0.003789 0.007476 0.002743 -0.005915 -0.003516 -0.000317 
瓦莱卡 0.001567 0.013155 0.003525 0.001212 -0.002275 0.007749 0.008382 0.002875 0.003670 -0.004371 -0.007624 0.003251 -0.002768 0.002677 -0.005751 0.002049 0.000062 -0.000326 0.000567 0.002700 -0.004703 0.005886 0.001112 0.001794 -0.000882 0.004076 0.002210 -0.000002 0.007184 -0.011767 -0.001153 0.014621 0.002686 0.007303 0.001329 0.002710 -0.005763 0.000227 -0.005279 0.003020 -0.009334 -0.001984 0.004114 0.000120 -0.002509 0.002547 -0.005813 0.001642 -0.011256 -0.007960 0.002616 0.010617 -0.006730 -0.001884 0.008931 0.005376 -0.003314 0.006797 0.001550 -0.008795 -0.001912 0.004444 -0.006735 0.004178 -0.002978 0.009016 0.002112 0.005030 0.002017 0.009279 -0.006877 -0.010903 -0.001355 -0.007206 0.000219 -0.002294 -0.004362 0.003636 0.009249 -0.006005 -0.003741 -0.001444 -0.003088 0.000441 -0.002597 -0.010356 -0.009860 0.005808 0.005421 -0.002134 -0.003440 -0.006712 -0.003140 -0.002123 0.008426 0.004808 0.000382 0.001385 -0.010277 -0.008781 
神夜华 -0.001152 0.007417 -0.004258 0.001476 -0.004057 0.000315 0.007162 0.001529 0.005013 0.001733 0.002558 0.006194 0.004666 0.002628 -0.009075 -0.004941 -0.000239 0.007534 -0.002951 -0.000720 -0.006737 0.005614 -0.001630 0.005154 -0.000341 -0.010776 -0.002490 0.000578 0.009525 -0.002811 0.008905 0.002813 0.003077 -0.000122 -0.004095 0.002179 -0.005193 -0.000170 -0.004549 -0.005905 0.004254 0.004755 -0.007766 -0.003715 0.004705 0.004208 -0.001996 0.010483 -0.002952 -0.006473 0.000984 -0.000257 -0.014394 -0.002665 0.004727 -0.000283 0.005481 -0.000341 0.011315 -0.002241 0.002421 0.003264 -0.003388 0.007070 -0.005247 0.002882 0.003501 0.006199 -0.006647 0.002578 -0.003753 -0.003007 0.000806 -0.004660 -0.004284 0.005801 -0.003017 0.002827 0.004579 -0.001437 0.001010 0.001270 -0.003498 0.000161 -0.006500 -0.006718 -0.008673 0.017927 0.004047 0.001429 0.002666 -0.013527 -0.010845 -0.007388 0.003721 0.002070 -0.004979 -0.000938 0.001353 -0.002935 
杨鸣分 0.001558 0.011744 -0.001313 0.000378 -0.003939 -0.007414 0.003297 0.002760 0.002547 0.006093 -0.000301 0.005409 0.004342 -0.000331 0.000946 0.008079 -0.008120 0.001926 -0.000703 -0.007505 -0.010689 0.007064 0.006349 -0.006173 -0.002766 -0.001146 -0.001839 0.009111 0.005008 -0.017463 0.008442 0.009367 -0.001570 0.001908 -0.000651 0.005005 -0.011051 0.008652 0.006346 0.002282 0.004601 -0.012597 0.000582 0.001797 0.009315 0.000834 -0.005578 0.006820 -0.011134 -0.016129 0.000843 0.000385 -0.008712 0.003530 0.000984 0.002926 0.001130 0.009243 0.004360 -0.007685 0.002269 0.001661 -0.006436 -0.002642 -0.008141 0.000595 -0.001518 -0.000700 -0.000313 0.013447 -0.007408 -0.009282 -0.001709 0.002659 0.000554 0.002993 0.001343 0.004533 0.001699 0.000745 -0.000846 -0.009826 -0.003200 0.002258 -0.000927 -0.007891 -0.012909 -0.000476 0.002998 -0.003017 -0.006076 0.004634 -0.003545 0.000880 0.000841 0.007736 0.000840 -0.007810 -0.009941 -0.007566 
双石棚 0.005339 -0.002096 -0.004899 0.002615 0.000080 0.000081 0.002993 0.004673 0.001175 0.000953 0.001075 -0.001402 0.005507 -0.002481 -0.002980 0.009250 -0.001547 0.003318 -0.004154 0.000162 -0.007054 0.005540 -0.001548 -0.000378 -0.003332 -0.003733 0.000318 -0.001898 0.000030 -0.008934 -0.003935 0.006032 0.003197 -0.002045 -0.000865 -0.001695 -0.005398 -0.001694 -0.006164 0.001266 -0.000925 -0.000879 0.000824 -0.001085 -0.001274 0.002561 0.002276 0.006267 -0.002623 -0.003107 0.009401 0.008813 -0.004459 0.001809 0.006582 0.000444 -0.000180 0.004731 -0.000848 -0.006130 0.003285 0.003714 -0.008482 0.006839 0.000366 0.004363 0.003021 0.001192 -0.005644 0.006185 -0.001618 -0.001866 -0.000915 -0.000825 0.001595 0.006088 0.004292 0.002211 -0.000457 -0.002904 0.000984 0.002194 0.004588 0.006229 -0.010641 -0.002008 -0.001917 0.004885 -0.001758 0.004639 0.008408 -0.001232 -0.006380 -0.003128 0.001702 0.002529 -0.008124 0.003093 -0.005613 -0.006864 
杨晴瑄 -0.000151 0.008821 0.005229 0.009913 -0.005723 0.003953 0.001772 0.004199 0.007550 0.002907 0.004510 -0.001607 -0.005816 -0.002780 -0.007991 -0.001542 0.000124 0.001131 0.001997 0.011288 -0.007192 -0.002548 -0.001222 0.003176 0.000308 -0.006959 -0.004740 0.002248 0.004109 -0.002882 0.003817 0.002984 -0.004420 0.000478 -0.003248 0.002884 0.000654 0.008404 -0.001877 0.002060 -0.005603 -0.000329 -0.005339 0.004517 0.004945 0.005369 -0.001014 0.011758 -0.001701 -0.009819 -0.001521 0.003754 -0.001077 -0.002131 0.002834 -0.000990 0.005679 0.001439 0.004298 0.002107 -0.002996 0.008696 0.000211 0.000633 -0.000135 0.007347 0.000100 0.000039 0.001050 0.010778 -0.002264 -0.001379 -0.003564 0.003671 0.002791 0.004909 -0.003084 0.005335 0.008621 -0.006627 0.002811 -0.005008 -0.004476 -0.003540 -0.008976 -0.008958 -0.009224 0.007347 0.003651 0.001741 0.008200 -0.005817 -0.005531 -0.002265 0.005599 -0.006628 0.000900 -0.002962 -0.008913 0.001080 
维廉斯 -0.004375 0.010558 0.000621 -0.001801 0.000714 0.000781 -0.000625 0.001959 0.002870 0.001554 0.003315 -0.003740 -0.000596 -0.001228 -0.004074 0.004700 -0.000805 -0.001864 0.000754 0.002250 -0.005854 0.001503 0.001914 -0.001335 0.003177 0.003988 -0.003535 0.003334 0.008685 -0.005808 -0.003269 0.007372 -0.001498 0.008147 -0.006215 0.000349 -0.001457 0.006205 -0.006763 0.000073 -0.005462 -0.002879 -0.004006 0.007346 -0.000945 -0.003262 -0.007094 0.005602 -0.010105 -0.009166 -0.000236 0.005774 -0.005743 0.003298 0.006803 -0.002651 0.000778 -0.001287 0.003375 -0.006502 -0.002775 0.000470 -0.005188 0.006194 0.001194 0.003862 -0.004277 0.001012 -0.003801 0.006118 -0.004959 -0.002080 0.000883 -0.001914 0.000697 -0.002177 -0.002748 -0.000418 0.002077 -0.000505 0.000252 0.000567 -0.003874 -0.000959 -0.000469 0.000191 -0.002008 0.001444 0.005560 0.002128 0.002973 -0.009936 0.001005 -0.011852 0.000803 -0.001804 -0.003724 0.000393 -0.008590 -0.007371 
elt 0.000622 0.005686 0.000371 0.000692 -0.007923 -0.001673 -0.001821 0.004517 0.003120 0.003108 -0.002914 -0.003275 -0.002212 -0.004449 -0.004865 0.005012 0.001853 0.003185 -0.000384 0.007467 -0.006479 0.001519 -0.004351 -0.004691 0.004083 -0.003637 -0.002660 0.001332 0.011958 -0.001650 0.001312 0.007982 0.000665 -0.002208 -0.001325 0.005577 -0.000430 0.009126 -0.006281 -0.002180 -0.007594 -0.007741 -0.002886 0.001194 0.004004 0.000523 -0.004374 0.003803 -0.003834 -0.006279 0.002417 0.009558 -0.001897 0.002435 0.003034 0.005910 0.002249 0.000825 0.008479 -0.005516 -0.004797 0.007476 -0.006354 -0.005339 -0.004495 0.009484 -0.002636 0.003126 -0.002492 0.008654 -0.002722 0.003030 0.000463 -0.000550 -0.006109 -0.001454 0.004337 0.003069 0.001717 -0.003075 0.001360 0.001361 0.001495 0.004748 -0.013891 -0.001262 0.000536 0.008502 0.005223 -0.001918 0.007358 -0.003831 -0.003762 -0.006661 0.000627 0.004998 -0.002365 -0.003166 -0.000833 -0.004592 
黄远东 0.002188 -0.000634 -0.002712 -0.006910 0.004132 0.002824 0.003539 -0.002205 0.002370 -0.004384 0.002765 0.002235 -0.002299 0.000180 -0.006077 -0.001086 0.005695 0.004045 0.001293 0.000599 0.000076 0.001517 0.000918 -0.001012 0.005671 -0.006482 0.000611 -0.003989 0.002695 0.001184 0.000287 0.002600 0.001378 0.000807 -0.007561 0.002682 0.001018 0.001827 -0.001528 0.001051 0.003412 0.000868 0.001126 -0.004140 -0.000132 0.001839 -0.004065 -0.000074 0.002054 -0.009603 0.001198 0.000040 -0.008481 0.001738 -0.002000 -0.006395 0.002212 0.002228 0.000695 0.000622 0.000988 -0.002920 0.001102 0.001312 0.003790 0.004523 -0.003038 0.003361 0.002127 0.004224 -0.003962 -0.001529 0.004884 0.000600 0.003578 -0.000561 -0.001842 0.000116 0.004292 -0.002414 0.002470 -0.003857 -0.005722 0.004688 -0.004482 -0.004291 -0.000114 0.004786 -0.001138 0.003880 -0.000706 -0.003601 -0.000427 -0.006396 0.001920 -0.005238 0.000341 0.000484 0.002680 -0.001888 
菲利普内维尔 0.001042 0.005524 -0.005728 -0.000034 -0.005194 0.002095 0.001357 -0.006664 0.001519 0.002835 -0.001410 -0.003513 -0.006128 0.002070 -0.000939 0.003062 -0.000081 -0.004865 0.000830 0.003577 -0.004275 0.006217 0.001938 -0.004327 -0.005080 -0.001338 -0.007023 0.000630 0.002094 -0.013277 0.003445 0.002151 -0.002345 0.002146 -0.004856 0.003099 -0.000417 -0.000337 -0.003393 0.001624 0.004482 -0.001384 0.004204 0.001954 0.005403 0.005337 -0.004505 0.004331 -0.001267 -0.010213 -0.000869 0.003252 -0.001663 0.004290 0.002139 0.004267 0.004731 0.006301 -0.001386 -0.009484 -0.001658 -0.002670 -0.009162 0.001785 0.001810 0.000583 0.004906 0.006324 0.004010 0.003822 -0.002030 -0.002351 0.000500 -0.006075 -0.006866 0.002436 0.003653 -0.004788 -0.000978 -0.000734 -0.003290 -0.004941 -0.001364 0.000160 0.000696 0.005460 -0.002237 0.005610 0.006486 -0.003663 -0.002288 -0.000074 0.002397 -0.003595 -0.001685 -0.001513 -0.002076 0.003209 -0.003137 -0.004597 
斯塔放 0.003274 0.004765 0.004707 0.002516 0.005547 0.002243 -0.001531 0.000868 -0.000150 0.003800 -0.001014 -0.003576 -0.003580 0.002041 0.001620 0.011289 -0.000698 -0.009122 -0.001450 -0.005934 0.003003 0.002151 0.005746 0.001193 -0.004003 -0.005494 -0.001587 0.003486 0.007997 -0.010747 0.002179 0.004581 -0.003749 0.007428 -0.001161 0.009423 -0.006409 0.002260 0.001763 -0.000244 0.000020 -0.003332 0.003644 -0.000426 0.002309 0.003401 -0.009929 0.011814 -0.005842 -0.011536 0.000396 0.006556 -0.009461 0.006125 0.005805 0.004121 -0.001502 0.008982 0.005144 -0.005655 0.000749 0.000583 -0.010575 0.007976 -0.005100 -0.001391 0.003692 0.007852 0.003737 0.014489 -0.010900 -0.004360 0.003623 -0.005102 -0.002520 -0.001375 -0.000418 0.002922 0.005193 -0.000489 -0.003968 -0.007162 -0.006397 0.000164 -0.007207 0.000356 -0.003824 0.007087 0.005997 0.001706 0.000196 -0.008212 0.004033 -0.008841 0.005037 0.006226 0.000863 0.001572 -0.004192 -0.003821 
郑渝高 0.000045 0.002277 -0.000867 -0.003984 0.000621 0.001064 0.003673 -0.001490 -0.001550 0.000633 -0.001858 -0.004745 0.002439 0.005072 0.009190 0.000680 -0.000912 0.002138 -0.004177 0.000877 -0.005191 -0.001455 0.001858 -0.006149 0.000290 -0.004647 -0.001747 -0.000572 0.004855 -0.004154 -0.005207 -0.003629 0.006817 0.000231 -0.005227 0.006733 -0.004197 0.004388 0.000055 -0.002008 0.000445 0.004244 0.002642 -0.003203 -0.002294 0.000843 -0.001952 -0.003856 -0.000557 0.005273 0.006010 0.001551 0.002166 0.000961 -0.003226 0.001298 -0.002323 -0.002844 0.004268 -0.005000 -0.001650 0.003198 0.000424 0.007826 -0.000002 0.001232 0.005335 0.003374 -0.001731 0.000814 -0.003202 -0.001339 -0.004942 0.001112 -0.004230 -0.000499 0.000822 -0.001412 -0.001464 -0.004208 -0.004559 0.003460 -0.003994 -0.004931 0.000737 0.000468 0.002059 -0.002049 0.006245 -0.004792 0.003876 0.004168 -0.005407 0.005731 0.001290 0.003041 -0.003398 0.005587 0.003192 0.002075 
